<?xml version="1.0"?>
<opencv_storage>
<cascade>
  <stageType>BOOST</stageType>
  <featureType>HAAR</featureType>
  <height>24</height>
  <width>24</width>
  <stageParams>
    <boostType>GAB</boostType>
    <minHitRate>1.</minHitRate>
    <maxFalseAlarm>1.0000000149011612e-01</maxFalseAlarm>
    <weightTrimRate>9.4999999999999996e-01</weightTrimRate>
    <maxDepth>1</maxDepth>
    <maxWeakCount>100</maxWeakCount></stageParams>
  <featureParams>
    <maxCatCount>0</maxCatCount>
    <featSize>1</featSize>
    <mode>BASIC</mode></featureParams>
  <stageNum>12</stageNum>
  <stages>
    <!-- stage 0 -->
    <_>
      <maxWeakCount>26</maxWeakCount>
      <stageThreshold>-8.4598928689956665e-01</stageThreshold>
      <weakClassifiers>
        <_>
          <internalNodes>
            0 -1 219 7.6683023944497108e-03</internalNodes>
          <leafValues>
            -6.5283232927322388e-01 6.1111313104629517e-01</leafValues></_>
        <_>
          <internalNodes>
            0 -1 604 -1.1086231097579002e-02</internalNodes>
          <leafValues>
            8.9790827035903931e-01 -2.6639097929000854e-01</leafValues></_>
        <_>
          <internalNodes>
            0 -1 148 3.4243114292621613e-02</internalNodes>
          <leafValues>
            2.1094322204589844e-01 -8.5567909479141235e-01</leafValues></_>
        <_>
          <internalNodes>
            0 -1 172 2.9794082045555115e-02</internalNodes>
          <leafValues>
            2.7730891108512878e-01 -9.8355311155319214e-01</leafValues></_>
        <_>
          <internalNodes>
            0 -1 558 -6.6431283950805664e-02</internalNodes>
          <leafValues>
            -1.2910302877426147e+00 9.7971394658088684e-02</leafValues></_>
        <_>
          <internalNodes>
            0 -1 185 9.3957176432013512e-04</internalNodes>
          <leafValues>
            -1.8618106842041016e-01 7.5289016962051392e-01</leafValues></_>
        <_>
          <internalNodes>
            0 -1 567 -5.3813704289495945e-04</internalNodes>
          <leafValues>
            9.4296097755432129e-01 -1.9949671626091003e-01</leafValues></_>
        <_>
          <internalNodes>
            0 -1 10 1.4801827492192388e-03</internalNodes>
          <leafValues>
            -2.7322155237197876e-01 4.4203743338584900e-01</leafValues></_>
        <_>
          <internalNodes>
            0 -1 402 -6.1889435164630413e-04</internalNodes>
          <leafValues>
            6.2538737058639526e-01 -2.5901138782501221e-01</leafValues></_>
        <_>
          <internalNodes>
            0 -1 146 2.3756241425871849e-03</internalNodes>
          <leafValues>
            -2.1611304581165314e-01 6.0035854578018188e-01</leafValues></_>
        <_>
          <internalNodes>
            0 -1 523 8.9171184226870537e-03</internalNodes>
          <leafValues>
            1.9350382685661316e-01 -7.1946078538894653e-01</leafValues></_>
        <_>
          <internalNodes>
            0 -1 551 2.1454286761581898e-03</internalNodes>
          <leafValues>
            -1.2881535291671753e-01 1.1375747919082642e+00</leafValues></_>
        <_>
          <internalNodes>
            0 -1 610 9.4940059352666140e-04</internalNodes>
          <leafValues>
            -1.7625457048416138e-01 7.3654317855834961e-01</leafValues></_>
        <_>
          <internalNodes>
            0 -1 60 3.9985410869121552e-02</internalNodes>
          <leafValues>
            1.2187284231185913e-01 -1.2660111188888550e+00</leafValues></_>
        <_>
          <internalNodes>
            0 -1 368 -5.3242884576320648e-02</internalNodes>
          <leafValues>
            -8.8844478130340576e-01 1.6865970194339752e-01</leafValues></_>
        <_>
          <internalNodes>
            0 -1 103 6.3753025606274605e-03</internalNodes>
          <leafValues>
            -1.4875072240829468e-01 7.7766239643096924e-01</leafValues></_>
        <_>
          <internalNodes>
            0 -1 221 -1.2517279386520386e-01</internalNodes>
          <leafValues>
            -1.0734623670578003e+00 1.4099888503551483e-01</leafValues></_>
        <_>
          <internalNodes>
            0 -1 131 1.0613949596881866e-01</internalNodes>
          <leafValues>
            1.4398618042469025e-01 -9.7924304008483887e-01</leafValues></_>
        <_>
          <internalNodes>
            0 -1 45 -3.5823091864585876e-02</internalNodes>
          <leafValues>
            -3.2744598388671875e-01 3.2239946722984314e-01</leafValues></_>
        <_>
          <internalNodes>
            0 -1 15 3.6392405629158020e-02</internalNodes>
          <leafValues>
            -1.9075872004032135e-01 7.4235701560974121e-01</leafValues></_>
        <_>
          <internalNodes>
            0 -1 387 -1.5395174268633127e-03</internalNodes>
          <leafValues>
            7.1328437328338623e-01 -1.8150216341018677e-01</leafValues></_>
        <_>
          <internalNodes>
            0 -1 437 1.1972676962614059e-02</internalNodes>
          <leafValues>
            2.1108967065811157e-01 -5.9748494625091553e-01</leafValues></_>
        <_>
          <internalNodes>
            0 -1 571 2.0986106246709824e-03</internalNodes>
          <leafValues>
            -1.4445962011814117e-01 9.6305501461029053e-01</leafValues></_>
        <_>
          <internalNodes>
            0 -1 559 -5.2407383918762207e-04</internalNodes>
          <leafValues>
            8.0673867464065552e-01 -1.5212731063365936e-01</leafValues></_>
        <_>
          <internalNodes>
            0 -1 375 6.4762709662318230e-03</internalNodes>
          <leafValues>
            1.7483992874622345e-01 -8.4537971019744873e-01</leafValues></_>
        <_>
          <internalNodes>
            0 -1 70 -9.2996302992105484e-03</internalNodes>
          <leafValues>
            -4.1107991337776184e-01 2.6635223627090454e-01</leafValues></_></weakClassifiers></_>
    <!-- stage 1 -->
    <_>
      <maxWeakCount>43</maxWeakCount>
      <stageThreshold>-8.9256340265274048e-01</stageThreshold>
      <weakClassifiers>
        <_>
          <internalNodes>
            0 -1 5 1.0922878049314022e-02</internalNodes>
          <leafValues>
            -4.1222637891769409e-01 9.2746919393539429e-01</leafValues></_>
        <_>
          <internalNodes>
            0 -1 289 2.5963317602872849e-02</internalNodes>
          <leafValues>
            1.7992119491100311e-01 -6.7430812120437622e-01</leafValues></_>
        <_>
          <internalNodes>
            0 -1 574 -5.3498886525630951e-02</internalNodes>
          <leafValues>
            7.2485178709030151e-01 -1.7656487226486206e-01</leafValues></_>
        <_>
          <internalNodes>
            0 -1 216 1.0361813940107822e-02</internalNodes>
          <leafValues>
            -2.1057242155075073e-01 5.6548094749450684e-01</leafValues></_>
        <_>
          <internalNodes>
            0 -1 516 -3.2487560063600540e-02</internalNodes>
          <leafValues>
            -3.4997814893722534e-01 2.5979435443878174e-01</leafValues></_>
        <_>
          <internalNodes>
            0 -1 31 6.6633028909564018e-03</internalNodes>
          <leafValues>
            -1.4499928057193756e-01 6.4587986469268799e-01</leafValues></_>
        <_>
          <internalNodes>
            0 -1 377 -9.0781704057008028e-04</internalNodes>
          <leafValues>
            5.1067721843719482e-01 -1.6171014308929443e-01</leafValues></_>
        <_>
          <internalNodes>
            0 -1 426 -1.3978693168610334e-03</internalNodes>
          <leafValues>
            7.0182955265045166e-01 -1.1316800117492676e-01</leafValues></_>
        <_>
          <internalNodes>
            0 -1 257 -7.8931227326393127e-03</internalNodes>
          <leafValues>
            9.1901242733001709e-01 -9.9432647228240967e-02</leafValues></_>
        <_>
          <internalNodes>
            0 -1 319 2.7618966996669769e-02</internalNodes>
          <leafValues>
            9.5978900790214539e-02 -1.0842680931091309e+00</leafValues></_>
        <_>
          <internalNodes>
            0 -1 151 4.0823961608111858e-03</internalNodes>
          <leafValues>
            1.7290323972702026e-01 -4.6934279799461365e-01</leafValues></_>
        <_>
          <internalNodes>
            0 -1 554 9.4007805455476046e-04</internalNodes>
          <leafValues>
            -1.0445482283830643e-01 1.0420002937316895e+00</leafValues></_>
        <_>
          <internalNodes>
            0 -1 490 -5.0263926386833191e-03</internalNodes>
          <leafValues>
            7.4186939001083374e-01 -1.1392936110496521e-01</leafValues></_>
        <_>
          <internalNodes>
            0 -1 578 -3.9407159201800823e-03</internalNodes>
          <leafValues>
            6.0967820882797241e-01 -1.2742570042610168e-01</leafValues></_>
        <_>
          <internalNodes>
            0 -1 410 3.0396156944334507e-03</internalNodes>
          <leafValues>
            -1.6559074819087982e-01 4.6993792057037354e-01</leafValues></_>
        <_>
          <internalNodes>
            0 -1 585 -4.1576391085982323e-03</internalNodes>
          <leafValues>
            8.7222009897232056e-01 -1.0402823984622955e-01</leafValues></_>
        <_>
          <internalNodes>
            0 -1 112 1.1778386309742928e-02</internalNodes>
          <leafValues>
            -9.6352130174636841e-02 9.5889741182327271e-01</leafValues></_>
        <_>
          <internalNodes>
            0 -1 479 -1.1795292375609279e-03</internalNodes>
          <leafValues>
            -3.7511092424392700e-01 2.0738154649734497e-01</leafValues></_>
        <_>
          <internalNodes>
            0 -1 12 4.4809291139245033e-03</internalNodes>
          <leafValues>
            -2.5916010141372681e-01 3.5117718577384949e-01</leafValues></_>
        <_>
          <internalNodes>
            0 -1 140 -2.9336827993392944e-01</internalNodes>
          <leafValues>
            -3.7878581881523132e-01 2.5112974643707275e-01</leafValues></_>
        <_>
          <internalNodes>
            0 -1 458 2.0433899480849504e-03</internalNodes>
          <leafValues>
            2.0299002528190613e-01 -4.0444660186767578e-01</leafValues></_>
        <_>
          <internalNodes>
            0 -1 620 -2.9383697547018528e-03</internalNodes>
          <leafValues>
            6.8257254362106323e-01 -1.3396441936492920e-01</leafValues></_>
        <_>
          <internalNodes>
            0 -1 499 -8.0256449291482568e-04</internalNodes>
          <leafValues>
            4.3335846066474915e-01 -1.8474617600440979e-01</leafValues></_>
        <_>
          <internalNodes>
            0 -1 353 5.5112034082412720e-02</internalNodes>
          <leafValues>
            6.8244084715843201e-02 -1.9962432384490967e+00</leafValues></_>
        <_>
          <internalNodes>
            0 -1 307 -1.0908532887697220e-02</internalNodes>
          <leafValues>
            -6.6335541009902954e-01 1.2210415303707123e-01</leafValues></_>
        <_>
          <internalNodes>
            0 -1 481 -1.9157297909259796e-02</internalNodes>
          <leafValues>
            -6.1707144975662231e-01 1.2827251851558685e-01</leafValues></_>
        <_>
          <internalNodes>
            0 -1 609 -7.5337165035307407e-03</internalNodes>
          <leafValues>
            5.2794772386550903e-01 -1.6741898655891418e-01</leafValues></_>
        <_>
          <internalNodes>
            0 -1 338 3.5058895591646433e-03</internalNodes>
          <leafValues>
            -1.2906648218631744e-01 6.9132721424102783e-01</leafValues></_>
        <_>
          <internalNodes>
            0 -1 197 -4.6671472489833832e-02</internalNodes>
          <leafValues>
            -7.1248006820678711e-01 1.2275230139493942e-01</leafValues></_>
        <_>
          <internalNodes>
            0 -1 315 -2.3635239340364933e-03</internalNodes>
          <leafValues>
            -3.7423989176750183e-01 2.0563024282455444e-01</leafValues></_>
        <_>
          <internalNodes>
            0 -1 577 7.2428099811077118e-03</internalNodes>
          <leafValues>
            -1.0434429347515106e-01 8.7243545055389404e-01</leafValues></_>
        <_>
          <internalNodes>
            0 -1 409 1.1075218208134174e-03</internalNodes>
          <leafValues>
            -1.0004545003175735e-01 8.2772958278656006e-01</leafValues></_>
        <_>
          <internalNodes>
            0 -1 339 1.7758277244865894e-03</internalNodes>
          <leafValues>
            1.4480054378509521e-01 -5.0413978099822998e-01</leafValues></_>
        <_>
          <internalNodes>
            0 -1 207 1.1989973485469818e-01</internalNodes>
          <leafValues>
            7.2915665805339813e-02 -2.0837757587432861e+00</leafValues></_>
        <_>
          <internalNodes>
            0 -1 465 -9.3374308198690414e-04</internalNodes>
          <leafValues>
            6.2640863656997681e-01 -1.3875058293342590e-01</leafValues></_>
        <_>
          <internalNodes>
            0 -1 250 9.6714030951261520e-04</internalNodes>
          <leafValues>
            1.5819969773292542e-01 -4.8973241448402405e-01</leafValues></_>
        <_>
          <internalNodes>
            0 -1 233 -3.9014793001115322e-03</internalNodes>
          <leafValues>
            7.9593265056610107e-01 -1.1192499101161957e-01</leafValues></_>
        <_>
          <internalNodes>
            0 -1 519 3.7829886423423886e-04</internalNodes>
          <leafValues>
            -1.4535863697528839e-01 5.4279804229736328e-01</leafValues></_>
        <_>
          <internalNodes>
            0 -1 194 5.3721903823316097e-03</internalNodes>
          <leafValues>
            1.6199989616870880e-01 -4.2509454488754272e-01</leafValues></_>
        <_>
          <internalNodes>
            0 -1 241 -1.0732910595834255e-03</internalNodes>
          <leafValues>
            7.4585509300231934e-01 -1.1275924742221832e-01</leafValues></_>
        <_>
          <internalNodes>
            0 -1 266 1.6437261365354061e-03</internalNodes>
          <leafValues>
            1.3121801614761353e-01 -6.6331321001052856e-01</leafValues></_>
        <_>
          <internalNodes>
            0 -1 255 3.8188092410564423e-02</internalNodes>
          <leafValues>
            1.3101664185523987e-01 -6.8454951047897339e-01</leafValues></_>
        <_>
          <internalNodes>
            0 -1 477 6.6399684874340892e-04</internalNodes>
          <leafValues>
            -1.5646189451217651e-01 5.1795047521591187e-01</leafValues></_></weakClassifiers></_>
    <!-- stage 2 -->
    <_>
      <maxWeakCount>54</maxWeakCount>
      <stageThreshold>-9.4991266727447510e-01</stageThreshold>
      <weakClassifiers>
        <_>
          <internalNodes>
            0 -1 7 1.0275691747665405e-02</internalNodes>
          <leafValues>
            -3.9795345067977905e-01 3.2628095149993896e-01</leafValues></_>
        <_>
          <internalNodes>
            0 -1 281 -6.3529396429657936e-03</internalNodes>
          <leafValues>
            4.0341687202453613e-01 -1.8174795806407928e-01</leafValues></_>
        <_>
          <internalNodes>
            0 -1 627 -1.9805624615401030e-03</internalNodes>
          <leafValues>
            -1.7589025199413300e-01 5.6535691022872925e-01</leafValues></_>
        <_>
          <internalNodes>
            0 -1 265 2.4878874421119690e-02</internalNodes>
          <leafValues>
            1.6568666696548462e-01 -5.9602063894271851e-01</leafValues></_>
        <_>
          <internalNodes>
            0 -1 605 -2.7773194015026093e-02</internalNodes>
          <leafValues>
            8.7446129322052002e-01 -7.5580529868602753e-02</leafValues></_>
        <_>
          <internalNodes>
            0 -1 575 -2.4010585620999336e-03</internalNodes>
          <leafValues>
            4.7282958030700684e-01 -1.4521200954914093e-01</leafValues></_>
        <_>
          <internalNodes>
            0 -1 412 -3.0152015388011932e-03</internalNodes>
          <leafValues>
            4.9988403916358948e-01 -1.2736442685127258e-01</leafValues></_>
        <_>
          <internalNodes>
            0 -1 433 3.9913348853588104e-02</internalNodes>
          <leafValues>
            1.0076034069061279e-01 -7.1539843082427979e-01</leafValues></_>
        <_>
          <internalNodes>
            0 -1 208 7.0707708597183228e-02</internalNodes>
          <leafValues>
            6.6387020051479340e-02 -1.6185265779495239e+00</leafValues></_>
        <_>
          <internalNodes>
            0 -1 487 1.4526455197483301e-03</internalNodes>
          <leafValues>
            -8.3984613418579102e-02 6.9658714532852173e-01</leafValues></_>
        <_>
          <internalNodes>
            0 -1 40 6.6716773435473442e-03</internalNodes>
          <leafValues>
            -1.2401964515447617e-01 5.9621286392211914e-01</leafValues></_>
        <_>
          <internalNodes>
            0 -1 282 -2.3070362210273743e-01</internalNodes>
          <leafValues>
            -1.1580098867416382e+00 7.2303645312786102e-02</leafValues></_>
        <_>
          <internalNodes>
            0 -1 612 -8.8478317484259605e-03</internalNodes>
          <leafValues>
            8.5893100500106812e-01 -7.3472172021865845e-02</leafValues></_>
        <_>
          <internalNodes>
            0 -1 425 1.9171067979186773e-03</internalNodes>
          <leafValues>
            1.4511889219284058e-01 -4.5329964160919189e-01</leafValues></_>
        <_>
          <internalNodes>
            0 -1 169 -1.5925265848636627e-02</internalNodes>
          <leafValues>
            -3.5954833030700684e-01 1.5692262351512909e-01</leafValues></_>
        <_>
          <internalNodes>
            0 -1 235 2.0970401819795370e-03</internalNodes>
          <leafValues>
            -1.2746523320674896e-01 6.1989098787307739e-01</leafValues></_>
        <_>
          <internalNodes>
            0 -1 361 2.5337684899568558e-02</internalNodes>
          <leafValues>
            9.9077887833118439e-02 -7.1146899461746216e-01</leafValues></_>
        <_>
          <internalNodes>
            0 -1 298 2.3980247788131237e-03</internalNodes>
          <leafValues>
            -1.2862063944339752e-01 5.6649523973464966e-01</leafValues></_>
        <_>
          <internalNodes>
            0 -1 187 -4.2614407837390900e-02</internalNodes>
          <leafValues>
            -6.3743138313293457e-01 1.0482758283615112e-01</leafValues></_>
        <_>
          <internalNodes>
            0 -1 199 -3.5409084521234035e-03</internalNodes>
          <leafValues>
            4.4052821397781372e-01 -1.5045726299285889e-01</leafValues></_>
        <_>
          <internalNodes>
            0 -1 51 -7.8419037163257599e-03</internalNodes>
          <leafValues>
            9.3747043609619141e-01 -7.4712455272674561e-02</leafValues></_>
        <_>
          <internalNodes>
            0 -1 617 5.8080521412193775e-03</internalNodes>
          <leafValues>
            -9.9440671503543854e-02 5.7468342781066895e-01</leafValues></_>
        <_>
          <internalNodes>
            0 -1 300 -4.3735257349908352e-05</internalNodes>
          <leafValues>
            -2.6210561394691467e-01 2.1917536854743958e-01</leafValues></_>
        <_>
          <internalNodes>
            0 -1 364 1.6518030315637589e-02</internalNodes>
          <leafValues>
            1.1488965898752213e-01 -5.5217415094375610e-01</leafValues></_>
        <_>
          <internalNodes>
            0 -1 243 7.2246167110279202e-04</internalNodes>
          <leafValues>
            -1.0747215151786804e-01 6.8443477153778076e-01</leafValues></_>
        <_>
          <internalNodes>
            0 -1 599 -2.5410889647901058e-03</internalNodes>
          <leafValues>
            9.8572230339050293e-01 -7.2828441858291626e-02</leafValues></_>
        <_>
          <internalNodes>
            0 -1 177 7.4868546798825264e-03</internalNodes>
          <leafValues>
            -3.1239807605743408e-01 2.1251103281974792e-01</leafValues></_>
        <_>
          <internalNodes>
            0 -1 77 -1.1307982727885246e-02</internalNodes>
          <leafValues>
            -8.0965501070022583e-01 8.6585849523544312e-02</leafValues></_>
        <_>
          <internalNodes>
            0 -1 118 5.3258723346516490e-04</internalNodes>
          <leafValues>
            1.9575725495815277e-01 -4.0348118543624878e-01</leafValues></_>
        <_>
          <internalNodes>
            0 -1 429 -5.3436579182744026e-03</internalNodes>
          <leafValues>
            1.2020312547683716e+00 -7.0413984358310699e-02</leafValues></_>
        <_>
          <internalNodes>
            0 -1 205 6.1302643734961748e-04</internalNodes>
          <leafValues>
            -1.1563036590814590e-01 5.8422595262527466e-01</leafValues></_>
        <_>
          <internalNodes>
            0 -1 86 7.8735733404755592e-04</internalNodes>
          <leafValues>
            -1.2021625787019730e-01 5.6336921453475952e-01</leafValues></_>
        <_>
          <internalNodes>
            0 -1 295 1.2242418713867664e-02</internalNodes>
          <leafValues>
            4.9375385046005249e-02 -5.7564578056335449e+00</leafValues></_>
        <_>
          <internalNodes>
            0 -1 157 2.6717465370893478e-03</internalNodes>
          <leafValues>
            -1.0487483441829681e-01 6.0961765050888062e-01</leafValues></_>
        <_>
          <internalNodes>
            0 -1 107 -1.1421779170632362e-02</internalNodes>
          <leafValues>
            -6.0907942056655884e-01 1.1220859736204147e-01</leafValues></_>
        <_>
          <internalNodes>
            0 -1 25 -4.0845993906259537e-02</internalNodes>
          <leafValues>
            2.3872947692871094e-01 -2.5400167703628540e-01</leafValues></_>
        <_>
          <internalNodes>
            0 -1 179 1.0787700302898884e-03</internalNodes>
          <leafValues>
            -1.4915214478969574e-01 4.4804242253303528e-01</leafValues></_>
        <_>
          <internalNodes>
            0 -1 408 1.8420856213197112e-04</internalNodes>
          <leafValues>
            -1.2532728910446167e-01 4.1270473599433899e-01</leafValues></_>
        <_>
          <internalNodes>
            0 -1 533 1.9787330529652536e-04</internalNodes>
          <leafValues>
            1.8031495809555054e-01 -3.2772088050842285e-01</leafValues></_>
        <_>
          <internalNodes>
            0 -1 501 -1.9359707832336426e-02</internalNodes>
          <leafValues>
            -4.1920742392539978e-01 1.8674476444721222e-01</leafValues></_>
        <_>
          <internalNodes>
            0 -1 573 9.8436567932367325e-03</internalNodes>
          <leafValues>
            -1.0503343492746353e-01 7.0258575677871704e-01</leafValues></_>
        <_>
          <internalNodes>
            0 -1 595 -8.2788486033678055e-03</internalNodes>
          <leafValues>
            4.3128129839897156e-01 -1.4367671310901642e-01</leafValues></_>
        <_>
          <internalNodes>
            0 -1 493 2.4614669382572174e-03</internalNodes>
          <leafValues>
            -1.9924563169479370e-01 3.0484417080879211e-01</leafValues></_>
        <_>
          <internalNodes>
            0 -1 121 -1.4662158489227295e-01</internalNodes>
          <leafValues>
            -2.3202991485595703e-01 3.1031557917594910e-01</leafValues></_>
        <_>
          <internalNodes>
            0 -1 115 3.2489765435457230e-03</internalNodes>
          <leafValues>
            -1.0606934130191803e-01 7.1436530351638794e-01</leafValues></_>
        <_>
          <internalNodes>
            0 -1 104 2.2784374654293060e-02</internalNodes>
          <leafValues>
            1.5859569609165192e-01 -4.0244308114051819e-01</leafValues></_>
        <_>
          <internalNodes>
            0 -1 34 2.3832771927118301e-02</internalNodes>
          <leafValues>
            8.0848328769207001e-02 -1.1781255006790161e+00</leafValues></_>
        <_>
          <internalNodes>
            0 -1 316 -3.4200144000351429e-03</internalNodes>
          <leafValues>
            -5.8414977788925171e-01 1.1062512546777725e-01</leafValues></_>
        <_>
          <internalNodes>
            0 -1 290 5.4668027587467805e-05</internalNodes>
          <leafValues>
            1.9048316776752472e-01 -3.2928925752639771e-01</leafValues></_>
        <_>
          <internalNodes>
            0 -1 526 -4.1055338806472719e-04</internalNodes>
          <leafValues>
            3.9739495515823364e-01 -1.4550805091857910e-01</leafValues></_>
        <_>
          <internalNodes>
            0 -1 225 3.3193228300660849e-03</internalNodes>
          <leafValues>
            -1.3369339704513550e-01 5.2728807926177979e-01</leafValues></_>
        <_>
          <internalNodes>
            0 -1 524 -3.1957734376192093e-02</internalNodes>
          <leafValues>
            -1.9512058496475220e+00 6.3801072537899017e-02</leafValues></_>
        <_>
          <internalNodes>
            0 -1 555 -5.3188740275800228e-03</internalNodes>
          <leafValues>
            -7.7726483345031738e-01 1.0287978500127792e-01</leafValues></_>
        <_>
          <internalNodes>
            0 -1 521 1.6191143076866865e-03</internalNodes>
          <leafValues>
            2.0786526799201965e-01 -4.2390739917755127e-01</leafValues></_></weakClassifiers></_>
    <!-- stage 3 -->
    <_>
      <maxWeakCount>71</maxWeakCount>
      <stageThreshold>-6.2906861305236816e-01</stageThreshold>
      <weakClassifiers>
        <_>
          <internalNodes>
            0 -1 4 6.8064518272876740e-03</internalNodes>
          <leafValues>
            -3.8330715894699097e-01 1.9432899355888367e-01</leafValues></_>
        <_>
          <internalNodes>
            0 -1 327 2.8211218304932117e-03</internalNodes>
          <leafValues>
            -1.2428694963455200e-01 4.4120919704437256e-01</leafValues></_>
        <_>
          <internalNodes>
            0 -1 583 -3.8455739617347717e-02</internalNodes>
          <leafValues>
            -3.0684858560562134e-01 1.7211584746837616e-01</leafValues></_>
        <_>
          <internalNodes>
            0 -1 218 2.7332114987075329e-03</internalNodes>
          <leafValues>
            -1.7053292691707611e-01 2.6665896177291870e-01</leafValues></_>
        <_>
          <internalNodes>
            0 -1 171 -1.2226341292262077e-02</internalNodes>
          <leafValues>
            7.4397343397140503e-01 -8.1832930445671082e-02</leafValues></_>
        <_>
          <internalNodes>
            0 -1 39 2.7255760505795479e-03</internalNodes>
          <leafValues>
            1.3416686654090881e-01 -3.7322863936424255e-01</leafValues></_>
        <_>
          <internalNodes>
            0 -1 580 -4.2134886607527733e-03</internalNodes>
          <leafValues>
            4.8467516899108887e-01 -9.9207326769828796e-02</leafValues></_>
        <_>
          <internalNodes>
            0 -1 331 -4.2450963519513607e-04</internalNodes>
          <leafValues>
            5.0950902700424194e-01 -9.8204173147678375e-02</leafValues></_>
        <_>
          <internalNodes>
            0 -1 561 -9.4436050858348608e-04</internalNodes>
          <leafValues>
            2.7465769648551941e-01 -1.7080487310886383e-01</leafValues></_>
        <_>
          <internalNodes>
            0 -1 149 -5.2067888900637627e-03</internalNodes>
          <leafValues>
            -3.2392323017120361e-01 1.4545881748199463e-01</leafValues></_>
        <_>
          <internalNodes>
            0 -1 226 1.0000139474868774e-02</internalNodes>
          <leafValues>
            9.3019805848598480e-02 -6.1868035793304443e-01</leafValues></_>
        <_>
          <internalNodes>
            0 -1 451 1.4128359034657478e-02</internalNodes>
          <leafValues>
            -8.9466258883476257e-02 5.5099362134933472e-01</leafValues></_>
        <_>
          <internalNodes>
            0 -1 569 -1.1342507787048817e-02</internalNodes>
          <leafValues>
            2.9307237267494202e-01 -1.6529105603694916e-01</leafValues></_>
        <_>
          <internalNodes>
            0 -1 211 1.5290938317775726e-03</internalNodes>
          <leafValues>
            -1.3393920660018921e-01 4.0644887089729309e-01</leafValues></_>
        <_>
          <internalNodes>
            0 -1 256 -1.0083529353141785e-01</internalNodes>
          <leafValues>
            -9.9474471807479858e-01 6.8711973726749420e-02</leafValues></_>
        <_>
          <internalNodes>
            0 -1 326 -5.6417006999254227e-04</internalNodes>
          <leafValues>
            4.2427745461463928e-01 -1.2332627922296524e-01</leafValues></_>
        <_>
          <internalNodes>
            0 -1 75 1.2206459417939186e-02</internalNodes>
          <leafValues>
            7.9771153628826141e-02 -6.6208088397979736e-01</leafValues></_>
        <_>
          <internalNodes>
            0 -1 113 -1.8078233115375042e-03</internalNodes>
          <leafValues>
            4.6288517117500305e-01 -1.1481915414333344e-01</leafValues></_>
        <_>
          <internalNodes>
            0 -1 304 2.4206591770052910e-03</internalNodes>
          <leafValues>
            -1.2405710667371750e-01 3.9086279273033142e-01</leafValues></_>
        <_>
          <internalNodes>
            0 -1 182 8.2515075337141752e-04</internalNodes>
          <leafValues>
            -1.3928411900997162e-01 3.6801213026046753e-01</leafValues></_>
        <_>
          <internalNodes>
            0 -1 352 -5.2806162275373936e-03</internalNodes>
          <leafValues>
            6.4108091592788696e-01 -7.9424194991588593e-02</leafValues></_>
        <_>
          <internalNodes>
            0 -1 288 1.8233662471175194e-02</internalNodes>
          <leafValues>
            1.3193698227405548e-01 -3.9509341120719910e-01</leafValues></_>
        <_>
          <internalNodes>
            0 -1 254 1.3322293758392334e-02</internalNodes>
          <leafValues>
            -1.9405975937843323e-01 2.7978208661079407e-01</leafValues></_>
        <_>
          <internalNodes>
            0 -1 46 -1.4338110387325287e-01</internalNodes>
          <leafValues>
            -8.6694496870040894e-01 6.5107189118862152e-02</leafValues></_>
        <_>
          <internalNodes>
            0 -1 344 -3.5067801363766193e-03</internalNodes>
          <leafValues>
            6.6772764921188354e-01 -8.4246747195720673e-02</leafValues></_>
        <_>
          <internalNodes>
            0 -1 349 7.5501122046262026e-04</internalNodes>
          <leafValues>
            -1.6733120381832123e-01 3.2647815346717834e-01</leafValues></_>
        <_>
          <internalNodes>
            0 -1 242 -4.8571539809927344e-04</internalNodes>
          <leafValues>
            -2.5881126523017883e-01 1.7998267710208893e-01</leafValues></_>
        <_>
          <internalNodes>
            0 -1 69 -1.4699923992156982e-01</internalNodes>
          <leafValues>
            -8.3639174699783325e-02 5.5256944894790649e-01</leafValues></_>
        <_>
          <internalNodes>
            0 -1 618 -2.2120296955108643e-02</internalNodes>
          <leafValues>
            9.2326283454895020e-01 -7.6307177543640137e-02</leafValues></_>
        <_>
          <internalNodes>
            0 -1 497 4.0791854262351990e-03</internalNodes>
          <leafValues>
            -7.2716183960437775e-02 7.8796511888504028e-01</leafValues></_>
        <_>
          <internalNodes>
            0 -1 621 -6.0498774982988834e-03</internalNodes>
          <leafValues>
            1.0089750289916992e+00 -6.6694639623165131e-02</leafValues></_>
        <_>
          <internalNodes>
            0 -1 471 1.5754584223031998e-02</internalNodes>
          <leafValues>
            6.4394570887088776e-02 -1.1557626724243164e+00</leafValues></_>
        <_>
          <internalNodes>
            0 -1 462 2.1873882040381432e-02</internalNodes>
          <leafValues>
            6.5262116491794586e-02 -1.0001345872879028e+00</leafValues></_>
        <_>
          <internalNodes>
            0 -1 386 5.1406794227659702e-04</internalNodes>
          <leafValues>
            -1.3942508399486542e-01 3.5332930088043213e-01</leafValues></_>
        <_>
          <internalNodes>
            0 -1 416 -5.3910266607999802e-02</internalNodes>
          <leafValues>
            -5.8638209104537964e-01 8.9401990175247192e-02</leafValues></_>
        <_>
          <internalNodes>
            0 -1 445 -1.9471839186735451e-04</internalNodes>
          <leafValues>
            -2.0165340602397919e-01 2.2611917555332184e-01</leafValues></_>
        <_>
          <internalNodes>
            0 -1 556 -8.5403770208358765e-03</internalNodes>
          <leafValues>
            3.5126629471778870e-01 -1.3279744982719421e-01</leafValues></_>
        <_>
          <internalNodes>
            0 -1 514 -1.3515150640159845e-03</internalNodes>
          <leafValues>
            -2.9831871390342712e-01 1.4742466807365417e-01</leafValues></_>
        <_>
          <internalNodes>
            0 -1 58 1.1905976571142673e-03</internalNodes>
          <leafValues>
            -1.3761968910694122e-01 3.7292131781578064e-01</leafValues></_>
        <_>
          <internalNodes>
            0 -1 203 9.9313436076045036e-03</internalNodes>
          <leafValues>
            8.5487909615039825e-02 -7.9825794696807861e-01</leafValues></_>
        <_>
          <internalNodes>
            0 -1 106 2.7466751635074615e-02</internalNodes>
          <leafValues>
            -7.7530615031719208e-02 8.1766319274902344e-01</leafValues></_>
        <_>
          <internalNodes>
            0 -1 190 6.0127861797809601e-04</internalNodes>
          <leafValues>
            1.6252027451992035e-01 -3.5799452662467957e-01</leafValues></_>
        <_>
          <internalNodes>
            0 -1 144 -2.0238987635821104e-03</internalNodes>
          <leafValues>
            -3.0976918339729309e-01 1.6877198219299316e-01</leafValues></_>
        <_>
          <internalNodes>
            0 -1 336 -3.4458253066986799e-03</internalNodes>
          <leafValues>
            6.4510476589202881e-01 -8.9560680091381073e-02</leafValues></_>
        <_>
          <internalNodes>
            0 -1 359 4.6780649572610855e-03</internalNodes>
          <leafValues>
            -8.4876537322998047e-02 6.7951709032058716e-01</leafValues></_>
        <_>
          <internalNodes>
            0 -1 198 2.0731044933199883e-03</internalNodes>
          <leafValues>
            1.3276034593582153e-01 -4.0227839350700378e-01</leafValues></_>
        <_>
          <internalNodes>
            0 -1 373 9.4518046826124191e-03</internalNodes>
          <leafValues>
            1.0220370441675186e-01 -5.9211134910583496e-01</leafValues></_>
        <_>
          <internalNodes>
            0 -1 323 8.4776181029155850e-04</internalNodes>
          <leafValues>
            -1.5485097467899323e-01 3.8330057263374329e-01</leafValues></_>
        <_>
          <internalNodes>
            0 -1 611 1.3630671892315149e-03</internalNodes>
          <leafValues>
            -1.2494539469480515e-01 4.6403947472572327e-01</leafValues></_>
        <_>
          <internalNodes>
            0 -1 98 -1.4153914526104927e-03</internalNodes>
          <leafValues>
            3.3632689714431763e-01 -1.5351548790931702e-01</leafValues></_>
        <_>
          <internalNodes>
            0 -1 48 -1.4376397302839905e-04</internalNodes>
          <leafValues>
            -2.0566898584365845e-01 2.6355943083763123e-01</leafValues></_>
        <_>
          <internalNodes>
            0 -1 83 -2.5118745863437653e-02</internalNodes>
          <leafValues>
            -1.0084701776504517e+00 6.5612852573394775e-02</leafValues></_>
        <_>
          <internalNodes>
            0 -1 419 -9.5307521405629814e-05</internalNodes>
          <leafValues>
            -2.4707153439521790e-01 1.8822784721851349e-01</leafValues></_>
        <_>
          <internalNodes>
            0 -1 341 -1.3474758714437485e-02</internalNodes>
          <leafValues>
            1.0053630918264389e-01 -5.4887932538986206e-01</leafValues></_>
        <_>
          <internalNodes>
            0 -1 127 -1.5938159078359604e-02</internalNodes>
          <leafValues>
            -2.9500222206115723e-01 1.7906801402568817e-01</leafValues></_>
        <_>
          <internalNodes>
            0 -1 367 -1.6013316810131073e-02</internalNodes>
          <leafValues>
            -2.7861908078193665e-01 1.7158214747905731e-01</leafValues></_>
        <_>
          <internalNodes>
            0 -1 14 3.8320287130773067e-03</internalNodes>
          <leafValues>
            -2.4487715959548950e-01 2.0448322594165802e-01</leafValues></_>
        <_>
          <internalNodes>
            0 -1 117 1.2660331558436155e-03</internalNodes>
          <leafValues>
            -1.3268633186817169e-01 3.5343864560127258e-01</leafValues></_>
        <_>
          <internalNodes>
            0 -1 88 1.0806005448102951e-03</internalNodes>
          <leafValues>
            8.5446998476982117e-02 -5.7722860574722290e-01</leafValues></_>
        <_>
          <internalNodes>
            0 -1 502 -4.7670528292655945e-03</internalNodes>
          <leafValues>
            1.8164326250553131e-01 -2.8067195415496826e-01</leafValues></_>
        <_>
          <internalNodes>
            0 -1 420 -2.8961536008864641e-03</internalNodes>
          <leafValues>
            -8.5113698244094849e-01 5.9227883815765381e-02</leafValues></_>
        <_>
          <internalNodes>
            0 -1 335 5.5158376926556230e-04</internalNodes>
          <leafValues>
            -1.1501025408506393e-01 4.4037738442420959e-01</leafValues></_>
        <_>
          <internalNodes>
            0 -1 622 2.8959728660993278e-04</internalNodes>
          <leafValues>
            1.5299989283084869e-01 -3.1228393316268921e-01</leafValues></_>
        <_>
          <internalNodes>
            0 -1 470 5.9979746583849192e-04</internalNodes>
          <leafValues>
            -7.1882933378219604e-02 6.6696536540985107e-01</leafValues></_>
        <_>
          <internalNodes>
            0 -1 400 -7.6356171630322933e-03</internalNodes>
          <leafValues>
            -7.1465671062469482e-01 6.6649742424488068e-02</leafValues></_>
        <_>
          <internalNodes>
            0 -1 116 1.4995674137026072e-03</internalNodes>
          <leafValues>
            -1.5695548057556152e-01 2.8180694580078125e-01</leafValues></_>
        <_>
          <internalNodes>
            0 -1 617 -7.6569891534745693e-03</internalNodes>
          <leafValues>
            7.3908734321594238e-01 -7.1159340441226959e-02</leafValues></_>
        <_>
          <internalNodes>
            0 -1 276 -9.8904664628207684e-04</internalNodes>
          <leafValues>
            -3.5084998607635498e-01 1.3658258318901062e-01</leafValues></_>
        <_>
          <internalNodes>
            0 -1 260 6.1625577509403229e-03</internalNodes>
          <leafValues>
            -1.0927948355674744e-01 4.9772933125495911e-01</leafValues></_>
        <_>
          <internalNodes>
            0 -1 560 3.1262119300663471e-03</internalNodes>
          <leafValues>
            1.2196157127618790e-01 -4.0295225381851196e-01</leafValues></_>
        <_>
          <internalNodes>
            0 -1 322 1.3334465026855469e-01</internalNodes>
          <leafValues>
            -6.2891170382499695e-02 1.0086938142776489e+00</leafValues></_></weakClassifiers></_>
    <!-- stage 4 -->
    <_>
      <maxWeakCount>66</maxWeakCount>
      <stageThreshold>-8.6410415172576904e-01</stageThreshold>
      <weakClassifiers>
        <_>
          <internalNodes>
            0 -1 396 -9.0507860295474529e-04</internalNodes>
          <leafValues>
            1.4469647407531738e-01 -3.9754360914230347e-01</leafValues></_>
        <_>
          <internalNodes>
            0 -1 376 1.1315027251839638e-02</internalNodes>
          <leafValues>
            9.1987468302249908e-02 -7.0095926523208618e-01</leafValues></_>
        <_>
          <internalNodes>
            0 -1 311 3.7535194307565689e-02</internalNodes>
          <leafValues>
            1.6369314491748810e-01 -4.2722246050834656e-01</leafValues></_>
        <_>
          <internalNodes>
            0 -1 94 5.5387835018336773e-03</internalNodes>
          <leafValues>
            -1.5286320447921753e-01 3.3798339962959290e-01</leafValues></_>
        <_>
          <internalNodes>
            0 -1 76 1.1710185557603836e-02</internalNodes>
          <leafValues>
            4.9031946808099747e-02 -1.0607024431228638e+00</leafValues></_>
        <_>
          <internalNodes>
            0 -1 613 1.1339586228132248e-02</internalNodes>
          <leafValues>
            -5.7378586381673813e-02 8.5645842552185059e-01</leafValues></_>
        <_>
          <internalNodes>
            0 -1 590 3.6931994836777449e-03</internalNodes>
          <leafValues>
            -1.0130044817924500e-01 7.8182142972946167e-01</leafValues></_>
        <_>
          <internalNodes>
            0 -1 492 -2.1975882351398468e-02</internalNodes>
          <leafValues>
            -4.8076879978179932e-01 1.1690454185009003e-01</leafValues></_>
        <_>
          <internalNodes>
            0 -1 401 1.6975523903965950e-03</internalNodes>
          <leafValues>
            -1.6544100642204285e-01 3.0068159103393555e-01</leafValues></_>
        <_>
          <internalNodes>
            0 -1 97 5.1658565644174814e-04</internalNodes>
          <leafValues>
            -9.8631016910076141e-02 4.2677655816078186e-01</leafValues></_>
        <_>
          <internalNodes>
            0 -1 16 -9.1533195227384567e-03</internalNodes>
          <leafValues>
            6.2303668260574341e-01 -9.9421054124832153e-02</leafValues></_>
        <_>
          <internalNodes>
            0 -1 155 6.6364253871142864e-03</internalNodes>
          <leafValues>
            1.0181030631065369e-01 -4.9149572849273682e-01</leafValues></_>
        <_>
          <internalNodes>
            0 -1 625 -4.1055481880903244e-02</internalNodes>
          <leafValues>
            -2.2843994200229645e-01 2.3293240368366241e-01</leafValues></_>
        <_>
          <internalNodes>
            0 -1 434 -8.0516353249549866e-02</internalNodes>
          <leafValues>
            6.1476629227399826e-02 -1.2032269239425659e+00</leafValues></_>
        <_>
          <internalNodes>
            0 -1 275 -1.6221866826526821e-04</internalNodes>
          <leafValues>
            -2.8358989953994751e-01 1.8383511900901794e-01</leafValues></_>
        <_>
          <internalNodes>
            0 -1 442 -1.0982786770910025e-03</internalNodes>
          <leafValues>
            4.9038600921630859e-01 -1.1242823302745819e-01</leafValues></_>
        <_>
          <internalNodes>
            0 -1 280 5.7410052977502346e-03</internalNodes>
          <leafValues>
            7.4649952352046967e-02 -7.6960015296936035e-01</leafValues></_>
        <_>
          <internalNodes>
            0 -1 457 1.4473246037960052e-01</internalNodes>
          <leafValues>
            -6.2240041792392731e-02 1.1449447870254517e+00</leafValues></_>
        <_>
          <internalNodes>
            0 -1 456 6.0614629182964563e-04</internalNodes>
          <leafValues>
            1.3965427875518799e-01 -3.7004539370536804e-01</leafValues></_>
        <_>
          <internalNodes>
            0 -1 325 1.7178077250719070e-03</internalNodes>
          <leafValues>
            -8.4763064980506897e-02 5.8570379018783569e-01</leafValues></_>
        <_>
          <internalNodes>
            0 -1 393 -1.2857507914304733e-02</internalNodes>
          <leafValues>
            -1.2342437505722046e+00 5.5391862988471985e-02</leafValues></_>
        <_>
          <internalNodes>
            0 -1 495 -2.6625640690326691e-02</internalNodes>
          <leafValues>
            -5.1470452547073364e-01 1.0481354594230652e-01</leafValues></_>
        <_>
          <internalNodes>
            0 -1 486 1.9943211227655411e-02</internalNodes>
          <leafValues>
            8.1683985888957977e-02 -6.1544519662857056e-01</leafValues></_>
        <_>
          <internalNodes>
            0 -1 543 5.7268077507615089e-03</internalNodes>
          <leafValues>
            -8.7909176945686340e-02 6.7249840497970581e-01</leafValues></_>
        <_>
          <internalNodes>
            0 -1 55 5.6671053171157837e-03</internalNodes>
          <leafValues>
            -2.2793337702751160e-01 2.1466785669326782e-01</leafValues></_>
        <_>
          <internalNodes>
            0 -1 586 -6.0327090322971344e-03</internalNodes>
          <leafValues>
            6.3858789205551147e-01 -8.7415151298046112e-02</leafValues></_>
        <_>
          <internalNodes>
            0 -1 273 -5.2859690040349960e-02</internalNodes>
          <leafValues>
            -6.2992513179779053e-01 8.0355271697044373e-02</leafValues></_>
        <_>
          <internalNodes>
            0 -1 287 1.3110646978020668e-04</internalNodes>
          <leafValues>
            2.3336793482303619e-01 -2.1324467658996582e-01</leafValues></_>
        <_>
          <internalNodes>
            0 -1 180 1.4330184087157249e-02</internalNodes>
          <leafValues>
            -1.3255144655704498e-01 4.1758108139038086e-01</leafValues></_>
        <_>
          <internalNodes>
            0 -1 109 2.3385155946016312e-02</internalNodes>
          <leafValues>
            5.0733480602502823e-02 -1.3097060918807983e+00</leafValues></_>
        <_>
          <internalNodes>
            0 -1 388 -1.1610351502895355e-03</internalNodes>
          <leafValues>
            -1.7860506474971771e-01 2.8214776515960693e-01</leafValues></_>
        <_>
          <internalNodes>
            0 -1 279 -1.3347306521609426e-03</internalNodes>
          <leafValues>
            5.8167695999145508e-01 -9.0928949415683746e-02</leafValues></_>
        <_>
          <internalNodes>
            0 -1 247 2.2006484214216471e-03</internalNodes>
          <leafValues>
            9.9107816815376282e-02 -5.0843441486358643e-01</leafValues></_>
        <_>
          <internalNodes>
            0 -1 619 1.4377692714333534e-03</internalNodes>
          <leafValues>
            -1.1237743496894836e-01 4.7278472781181335e-01</leafValues></_>
        <_>
          <internalNodes>
            0 -1 623 1.1874781921505928e-02</internalNodes>
          <leafValues>
            9.2661701142787933e-02 -5.8517199754714966e-01</leafValues></_>
        <_>
          <internalNodes>
            0 -1 395 -7.5871590524911880e-03</internalNodes>
          <leafValues>
            7.8257083892822266e-01 -7.3982372879981995e-02</leafValues></_>
        <_>
          <internalNodes>
            0 -1 382 -2.1195320878177881e-03</internalNodes>
          <leafValues>
            -3.9652672410011292e-01 1.3328529894351959e-01</leafValues></_>
        <_>
          <internalNodes>
            0 -1 19 7.6157646253705025e-04</internalNodes>
          <leafValues>
            -9.8049290478229523e-02 5.7545477151870728e-01</leafValues></_>
        <_>
          <internalNodes>
            0 -1 27 -6.7642396315932274e-03</internalNodes>
          <leafValues>
            -3.7797516584396362e-01 1.3743579387664795e-01</leafValues></_>
        <_>
          <internalNodes>
            0 -1 17 2.5870738551020622e-02</internalNodes>
          <leafValues>
            9.8338961601257324e-02 -5.5011993646621704e-01</leafValues></_>
        <_>
          <internalNodes>
            0 -1 66 -9.8739918321371078e-03</internalNodes>
          <leafValues>
            -6.3749235868453979e-01 8.3823099732398987e-02</leafValues></_>
        <_>
          <internalNodes>
            0 -1 489 8.7071704911068082e-04</internalNodes>
          <leafValues>
            -1.5103395283222198e-01 3.1525504589080811e-01</leafValues></_>
        <_>
          <internalNodes>
            0 -1 600 -1.9101514481008053e-03</internalNodes>
          <leafValues>
            3.6094346642494202e-01 -1.2364551424980164e-01</leafValues></_>
        <_>
          <internalNodes>
            0 -1 324 1.5892527881078422e-04</internalNodes>
          <leafValues>
            2.0774635672569275e-01 -2.1758857369422913e-01</leafValues></_>
        <_>
          <internalNodes>
            0 -1 480 3.4748114645481110e-02</internalNodes>
          <leafValues>
            4.6873066574335098e-02 -1.4055678844451904e+00</leafValues></_>
        <_>
          <internalNodes>
            0 -1 89 8.4033943712711334e-03</internalNodes>
          <leafValues>
            6.2092095613479614e-02 -9.6587604284286499e-01</leafValues></_>
        <_>
          <internalNodes>
            0 -1 500 7.4559077620506287e-04</internalNodes>
          <leafValues>
            -1.4750882983207703e-01 3.5311561822891235e-01</leafValues></_>
        <_>
          <internalNodes>
            0 -1 9 -6.3910707831382751e-02</internalNodes>
          <leafValues>
            -5.6220269203186035e-01 8.4870532155036926e-02</leafValues></_>
        <_>
          <internalNodes>
            0 -1 222 -2.7798457071185112e-02</internalNodes>
          <leafValues>
            5.7194855064153671e-02 -1.0695030689239502e+00</leafValues></_>
        <_>
          <internalNodes>
            0 -1 491 -1.0530849918723106e-02</internalNodes>
          <leafValues>
            7.7186322212219238e-01 -7.6468311250209808e-02</leafValues></_>
        <_>
          <internalNodes>
            0 -1 2 4.4907880946993828e-03</internalNodes>
          <leafValues>
            -1.1153396964073181e-01 4.2606261372566223e-01</leafValues></_>
        <_>
          <internalNodes>
            0 -1 220 -2.3190647363662720e-02</internalNodes>
          <leafValues>
            -3.7249276041984558e-01 1.3025562465190887e-01</leafValues></_>
        <_>
          <internalNodes>
            0 -1 506 -3.8610876072198153e-04</internalNodes>
          <leafValues>
            4.4268083572387695e-01 -1.1104580014944077e-01</leafValues></_>
        <_>
          <internalNodes>
            0 -1 509 1.5507031232118607e-02</internalNodes>
          <leafValues>
            4.4788528233766556e-02 -1.4670742750167847e+00</leafValues></_>
        <_>
          <internalNodes>
            0 -1 449 -2.0769149065017700e-02</internalNodes>
          <leafValues>
            6.3058304786682129e-01 -7.6366484165191650e-02</leafValues></_>
        <_>
          <internalNodes>
            0 -1 128 -3.8694307208061218e-02</internalNodes>
          <leafValues>
            -1.1456225067377090e-01 4.1088876128196716e-01</leafValues></_>
        <_>
          <internalNodes>
            0 -1 24 1.7059411853551865e-02</internalNodes>
          <leafValues>
            -6.6902048885822296e-02 1.0133775472640991e+00</leafValues></_>
        <_>
          <internalNodes>
            0 -1 446 -3.9654769934713840e-03</internalNodes>
          <leafValues>
            -2.2034630179405212e-01 2.0013643801212311e-01</leafValues></_>
        <_>
          <internalNodes>
            0 -1 230 1.7276234924793243e-02</internalNodes>
          <leafValues>
            1.7129445075988770e-01 -2.8580191731452942e-01</leafValues></_>
        <_>
          <internalNodes>
            0 -1 398 1.0407783091068268e-02</internalNodes>
          <leafValues>
            -1.3269369304180145e-01 4.1095301508903503e-01</leafValues></_>
        <_>
          <internalNodes>
            0 -1 306 -1.3956025242805481e-02</internalNodes>
          <leafValues>
            -9.9421280622482300e-01 6.3034079968929291e-02</leafValues></_>
        <_>
          <internalNodes>
            0 -1 309 -1.6643627313897014e-03</internalNodes>
          <leafValues>
            4.2349788546562195e-01 -1.3302420079708099e-01</leafValues></_>
        <_>
          <internalNodes>
            0 -1 110 2.9577743262052536e-02</internalNodes>
          <leafValues>
            7.6037779450416565e-02 -7.7788633108139038e-01</leafValues></_>
        <_>
          <internalNodes>
            0 -1 270 3.7140268832445145e-03</internalNodes>
          <leafValues>
            -9.8363146185874939e-02 5.7749044895172119e-01</leafValues></_>
        <_>
          <internalNodes>
            0 -1 154 1.3765169307589531e-02</internalNodes>
          <leafValues>
            1.2668144702911377e-01 -4.2421519756317139e-01</leafValues></_>
        <_>
          <internalNodes>
            0 -1 191 -1.7190339043736458e-02</internalNodes>
          <leafValues>
            -6.5253084897994995e-01 9.8480850458145142e-02</leafValues></_></weakClassifiers></_>
    <!-- stage 5 -->
    <_>
      <maxWeakCount>46</maxWeakCount>
      <stageThreshold>-3.9859336614608765e-01</stageThreshold>
      <weakClassifiers>
        <_>
          <internalNodes>
            0 -1 399 1.9920255988836288e-02</internalNodes>
          <leafValues>
            -1.4265344943851233e-03 -8.0271494388580322e-01</leafValues></_>
        <_>
          <internalNodes>
            0 -1 249 4.6910219825804234e-03</internalNodes>
          <leafValues>
            1.1649499088525772e-01 -7.2418087720870972e-01</leafValues></_>
        <_>
          <internalNodes>
            0 -1 47 2.2100374102592468e-02</internalNodes>
          <leafValues>
            1.1149278283119202e-01 -8.0598008632659912e-01</leafValues></_>
        <_>
          <internalNodes>
            0 -1 6 -1.0384382680058479e-02</internalNodes>
          <leafValues>
            5.3383874893188477e-01 -1.2629468739032745e-01</leafValues></_>
        <_>
          <internalNodes>
            0 -1 370 4.8832420725375414e-04</internalNodes>
          <leafValues>
            -1.6348148882389069e-01 3.9792397618293762e-01</leafValues></_>
        <_>
          <internalNodes>
            0 -1 346 3.9743803790770471e-04</internalNodes>
          <leafValues>
            -1.2412981688976288e-01 4.9476632475852966e-01</leafValues></_>
        <_>
          <internalNodes>
            0 -1 85 9.7831841558218002e-03</internalNodes>
          <leafValues>
            7.6293393969535828e-02 -9.2534661293029785e-01</leafValues></_>
        <_>
          <internalNodes>
            0 -1 603 -1.2058990076184273e-02</internalNodes>
          <leafValues>
            6.9711196422576904e-01 -7.2466664016246796e-02</leafValues></_>
        <_>
          <internalNodes>
            0 -1 591 -1.5848945826292038e-02</internalNodes>
          <leafValues>
            -2.7324745059013367e-01 1.9984610378742218e-01</leafValues></_>
        <_>
          <internalNodes>
            0 -1 518 -3.7226662039756775e-02</internalNodes>
          <leafValues>
            -5.2457249164581299e-01 1.2036486715078354e-01</leafValues></_>
        <_>
          <internalNodes>
            0 -1 91 1.3872892595827579e-03</internalNodes>
          <leafValues>
            -9.3333691358566284e-02 6.4202141761779785e-01</leafValues></_>
        <_>
          <internalNodes>
            0 -1 553 -2.7330820448696613e-03</internalNodes>
          <leafValues>
            6.9373917579650879e-01 -8.8034383952617645e-02</leafValues></_>
        <_>
          <internalNodes>
            0 -1 338 5.9318412095308304e-03</internalNodes>
          <leafValues>
            -8.7350331246852875e-02 9.0357178449630737e-01</leafValues></_>
        <_>
          <internalNodes>
            0 -1 438 -6.6995741799473763e-03</internalNodes>
          <leafValues>
            -3.9177373051643372e-01 1.5555478632450104e-01</leafValues></_>
        <_>
          <internalNodes>
            0 -1 150 -7.8272223472595215e-03</internalNodes>
          <leafValues>
            6.2701821327209473e-01 -9.9275946617126465e-02</leafValues></_>
        <_>
          <internalNodes>
            0 -1 476 5.2491500973701477e-02</internalNodes>
          <leafValues>
            7.0328682661056519e-02 -1.0656721591949463e+00</leafValues></_>
        <_>
          <internalNodes>
            0 -1 328 -1.2075100839138031e-01</internalNodes>
          <leafValues>
            -9.5018696784973145e-01 7.6099552214145660e-02</leafValues></_>
        <_>
          <internalNodes>
            0 -1 520 -3.3944526221603155e-03</internalNodes>
          <leafValues>
            5.2847963571548462e-01 -1.0230418294668198e-01</leafValues></_>
        <_>
          <internalNodes>
            0 -1 498 1.0211607441306114e-02</internalNodes>
          <leafValues>
            8.6878329515457153e-02 -7.3826962709426880e-01</leafValues></_>
        <_>
          <internalNodes>
            0 -1 531 4.3993875384330750e-02</internalNodes>
          <leafValues>
            -5.2145104855298996e-02 1.9457901716232300e+00</leafValues></_>
        <_>
          <internalNodes>
            0 -1 414 -7.9098977148532867e-03</internalNodes>
          <leafValues>
            8.1161576509475708e-01 -7.7853567898273468e-02</leafValues></_>
        <_>
          <internalNodes>
            0 -1 584 -1.1221831664443016e-03</internalNodes>
          <leafValues>
            1.8693812191486359e-01 -3.0295866727828979e-01</leafValues></_>
        <_>
          <internalNodes>
            0 -1 337 1.2876751832664013e-02</internalNodes>
          <leafValues>
            -1.2917017936706543e-01 4.9275571107864380e-01</leafValues></_>
        <_>
          <internalNodes>
            0 -1 608 7.3145038913935423e-04</internalNodes>
          <leafValues>
            -9.5641404390335083e-02 5.4938387870788574e-01</leafValues></_>
        <_>
          <internalNodes>
            0 -1 418 -3.3092256635427475e-02</internalNodes>
          <leafValues>
            -4.4327959418296814e-01 1.3267199695110321e-01</leafValues></_>
        <_>
          <internalNodes>
            0 -1 626 -4.5887043233960867e-04</internalNodes>
          <leafValues>
            -2.8737813234329224e-01 2.1128983795642853e-01</leafValues></_>
        <_>
          <internalNodes>
            0 -1 82 3.4047993831336498e-03</internalNodes>
          <leafValues>
            -2.7905672788619995e-01 2.3898969590663910e-01</leafValues></_>
        <_>
          <internalNodes>
            0 -1 592 -5.1723560318350792e-03</internalNodes>
          <leafValues>
            6.0165393352508545e-01 -1.1647865176200867e-01</leafValues></_>
        <_>
          <internalNodes>
            0 -1 448 1.4159234706312418e-03</internalNodes>
          <leafValues>
            8.1156909465789795e-02 -9.2515635490417480e-01</leafValues></_>
        <_>
          <internalNodes>
            0 -1 141 -3.6858012899756432e-03</internalNodes>
          <leafValues>
            8.0973577499389648e-01 -7.4027583003044128e-02</leafValues></_>
        <_>
          <internalNodes>
            0 -1 312 -6.5127471461892128e-03</internalNodes>
          <leafValues>
            -3.4166839718818665e-01 1.4884401857852936e-01</leafValues></_>
        <_>
          <internalNodes>
            0 -1 237 1.2518247589468956e-02</internalNodes>
          <leafValues>
            2.3363679647445679e-01 -2.7132529020309448e-01</leafValues></_>
        <_>
          <internalNodes>
            0 -1 455 1.1692398693412542e-03</internalNodes>
          <leafValues>
            -1.9717541337013245e-01 2.7631667256355286e-01</leafValues></_>
        <_>
          <internalNodes>
            0 -1 176 1.5185475349426270e-03</internalNodes>
          <leafValues>
            -1.4607755839824677e-01 4.0435656905174255e-01</leafValues></_>
        <_>
          <internalNodes>
            0 -1 108 1.5697889029979706e-02</internalNodes>
          <leafValues>
            7.0510588586330414e-02 -7.7240997552871704e-01</leafValues></_>
        <_>
          <internalNodes>
            0 -1 29 4.0888809598982334e-03</internalNodes>
          <leafValues>
            2.3643513023853302e-01 -2.8426006436347961e-01</leafValues></_>
        <_>
          <internalNodes>
            0 -1 403 -1.2307787314057350e-02</internalNodes>
          <leafValues>
            1.1217701435089111e+00 -6.6026173532009125e-02</leafValues></_>
        <_>
          <internalNodes>
            0 -1 165 -1.3380037620663643e-02</internalNodes>
          <leafValues>
            6.0704094171524048e-01 -1.0032960027456284e-01</leafValues></_>
        <_>
          <internalNodes>
            0 -1 405 -4.4419066980481148e-03</internalNodes>
          <leafValues>
            -3.1586456298828125e-01 1.8481977283954620e-01</leafValues></_>
        <_>
          <internalNodes>
            0 -1 264 -2.7414542436599731e-01</internalNodes>
          <leafValues>
            4.6168377995491028e-01 -1.5156173706054688e-01</leafValues></_>
        <_>
          <internalNodes>
            0 -1 13 -1.7717626690864563e-01</internalNodes>
          <leafValues>
            -5.3363931179046631e-01 1.2246204912662506e-01</leafValues></_>
        <_>
          <internalNodes>
            0 -1 100 -1.0951782763004303e-01</internalNodes>
          <leafValues>
            7.2767108678817749e-01 -8.2710519433021545e-02</leafValues></_>
        <_>
          <internalNodes>
            0 -1 278 -1.1242402717471123e-02</internalNodes>
          <leafValues>
            -4.8648071289062500e-01 1.1345337331295013e-01</leafValues></_>
        <_>
          <internalNodes>
            0 -1 598 2.0214745309203863e-03</internalNodes>
          <leafValues>
            8.0767065286636353e-02 -8.1034296751022339e-01</leafValues></_>
        <_>
          <internalNodes>
            0 -1 568 -6.1788475140929222e-03</internalNodes>
          <leafValues>
            3.4509733319282532e-01 -1.5125651657581329e-01</leafValues></_>
        <_>
          <internalNodes>
            0 -1 175 -1.0798676521517336e-04</internalNodes>
          <leafValues>
            -2.7814352512359619e-01 2.1444846689701080e-01</leafValues></_></weakClassifiers></_>
    <!-- stage 6 -->
    <_>
      <maxWeakCount>55</maxWeakCount>
      <stageThreshold>-5.8107018470764160e-01</stageThreshold>
      <weakClassifiers>
        <_>
          <internalNodes>
            0 -1 8 1.4534603804349899e-02</internalNodes>
          <leafValues>
            -3.6622452735900879e-01 2.1046067774295807e-01</leafValues></_>
        <_>
          <internalNodes>
            0 -1 43 3.3146023750305176e-02</internalNodes>
          <leafValues>
            5.7850070297718048e-02 -1.1819244623184204e+00</leafValues></_>
        <_>
          <internalNodes>
            0 -1 379 -7.0086061954498291e-02</internalNodes>
          <leafValues>
            -5.4314821958541870e-01 1.1695033311843872e-01</leafValues></_>
        <_>
          <internalNodes>
            0 -1 244 -5.0173825584352016e-03</internalNodes>
          <leafValues>
            6.7187964916229248e-01 -8.9957766234874725e-02</leafValues></_>
        <_>
          <internalNodes>
            0 -1 63 2.9384866356849670e-03</internalNodes>
          <leafValues>
            5.5639464408159256e-02 -7.6243835687637329e-01</leafValues></_>
        <_>
          <internalNodes>
            0 -1 163 -2.3591415956616402e-03</internalNodes>
          <leafValues>
            8.4588450193405151e-01 -5.9143617749214172e-02</leafValues></_>
        <_>
          <internalNodes>
            0 -1 269 -1.7344287037849426e-01</internalNodes>
          <leafValues>
            6.3243913650512695e-01 -9.5389716327190399e-02</leafValues></_>
        <_>
          <internalNodes>
            0 -1 557 -5.1781404763460159e-03</internalNodes>
          <leafValues>
            6.6239193081855774e-02 -1.2203798294067383e+00</leafValues></_>
        <_>
          <internalNodes>
            0 -1 136 -1.4411017298698425e-01</internalNodes>
          <leafValues>
            -8.2180112600326538e-01 7.2917908430099487e-02</leafValues></_>
        <_>
          <internalNodes>
            0 -1 411 7.9015083611011505e-03</internalNodes>
          <leafValues>
            -8.5320711135864258e-02 5.0855088233947754e-01</leafValues></_>
        <_>
          <internalNodes>
            0 -1 366 -6.2493205070495605e-02</internalNodes>
          <leafValues>
            -1.2474428415298462e+00 4.1574031114578247e-02</leafValues></_>
        <_>
          <internalNodes>
            0 -1 59 2.6133356615900993e-02</internalNodes>
          <leafValues>
            6.1865657567977905e-02 -8.9485603570938110e-01</leafValues></_>
        <_>
          <internalNodes>
            0 -1 253 1.4834075700491667e-03</internalNodes>
          <leafValues>
            -1.9597233831882477e-01 2.1364355087280273e-01</leafValues></_>
        <_>
          <internalNodes>
            0 -1 126 3.3511506626382470e-04</internalNodes>
          <leafValues>
            9.7922846674919128e-02 -4.5200592279434204e-01</leafValues></_>
        <_>
          <internalNodes>
            0 -1 78 1.1544221080839634e-02</internalNodes>
          <leafValues>
            -8.6132206022739410e-02 5.3086006641387939e-01</leafValues></_>
        <_>
          <internalNodes>
            0 -1 460 2.3102439008653164e-03</internalNodes>
          <leafValues>
            1.1381567269563675e-01 -4.0118250250816345e-01</leafValues></_>
        <_>
          <internalNodes>
            0 -1 390 2.0562051795423031e-03</internalNodes>
          <leafValues>
            -1.1486864835023880e-01 4.8480728268623352e-01</leafValues></_>
        <_>
          <internalNodes>
            0 -1 81 -2.2833943367004395e-02</internalNodes>
          <leafValues>
            6.5264022350311279e-01 -8.0686703324317932e-02</leafValues></_>
        <_>
          <internalNodes>
            0 -1 32 -1.5525104478001595e-02</internalNodes>
          <leafValues>
            -2.1802470088005066e-01 2.1418294310569763e-01</leafValues></_>
        <_>
          <internalNodes>
            0 -1 224 -2.9239647090435028e-02</internalNodes>
          <leafValues>
            -8.6402112245559692e-01 6.6434577107429504e-02</leafValues></_>
        <_>
          <internalNodes>
            0 -1 385 -2.8647726867347956e-04</internalNodes>
          <leafValues>
            2.7175575494766235e-01 -1.6893261671066284e-01</leafValues></_>
        <_>
          <internalNodes>
            0 -1 99 1.7321629449725151e-02</internalNodes>
          <leafValues>
            -9.1361574828624725e-02 5.2332508563995361e-01</leafValues></_>
        <_>
          <internalNodes>
            0 -1 0 -6.6310481633991003e-04</internalNodes>
          <leafValues>
            -6.5077143907546997e-01 6.9814816117286682e-02</leafValues></_>
        <_>
          <internalNodes>
            0 -1 173 7.3077608831226826e-03</internalNodes>
          <leafValues>
            6.7673332989215851e-02 -8.1817615032196045e-01</leafValues></_>
        <_>
          <internalNodes>
            0 -1 67 2.4912266526371241e-03</internalNodes>
          <leafValues>
            -1.0080978274345398e-01 4.5003044605255127e-01</leafValues></_>
        <_>
          <internalNodes>
            0 -1 547 -8.7687326595187187e-03</internalNodes>
          <leafValues>
            4.4177961349487305e-01 -1.1385051161050797e-01</leafValues></_>
        <_>
          <internalNodes>
            0 -1 215 2.5668160524219275e-03</internalNodes>
          <leafValues>
            -1.3440337777137756e-01 3.5184368491172791e-01</leafValues></_>
        <_>
          <internalNodes>
            0 -1 488 1.3245553709566593e-03</internalNodes>
          <leafValues>
            -1.0051800310611725e-01 5.0715082883834839e-01</leafValues></_>
        <_>
          <internalNodes>
            0 -1 166 7.6256077736616135e-03</internalNodes>
          <leafValues>
            -5.2159875631332397e-02 1.6065798997879028e+00</leafValues></_>
        <_>
          <internalNodes>
            0 -1 209 2.1078441292047501e-02</internalNodes>
          <leafValues>
            -9.4037197530269623e-02 5.1616799831390381e-01</leafValues></_>
        <_>
          <internalNodes>
            0 -1 183 1.1051332112401724e-03</internalNodes>
          <leafValues>
            2.4734692275524139e-01 -2.2468852996826172e-01</leafValues></_>
        <_>
          <internalNodes>
            0 -1 33 -1.2103199958801270e-02</internalNodes>
          <leafValues>
            -1.6592697799205780e-01 2.9738149046897888e-01</leafValues></_>
        <_>
          <internalNodes>
            0 -1 161 -7.8900098800659180e-02</internalNodes>
          <leafValues>
            3.1499096751213074e-01 -1.7721115052700043e-01</leafValues></_>
        <_>
          <internalNodes>
            0 -1 431 8.7124640122056007e-03</internalNodes>
          <leafValues>
            -5.2919771522283554e-02 1.2578954696655273e+00</leafValues></_>
        <_>
          <internalNodes>
            0 -1 357 1.0494593530893326e-02</internalNodes>
          <leafValues>
            9.9888391792774200e-02 -4.7544699907302856e-01</leafValues></_>
        <_>
          <internalNodes>
            0 -1 378 -8.0251879990100861e-03</internalNodes>
          <leafValues>
            3.6896222829818726e-01 -1.3345560431480408e-01</leafValues></_>
        <_>
          <internalNodes>
            0 -1 365 9.5910374075174332e-03</internalNodes>
          <leafValues>
            1.1096566915512085e-01 -4.0477696061134338e-01</leafValues></_>
        <_>
          <internalNodes>
            0 -1 422 -7.2060996899381280e-05</internalNodes>
          <leafValues>
            -1.9790311157703400e-01 2.3994790017604828e-01</leafValues></_>
        <_>
          <internalNodes>
            0 -1 74 2.6900380849838257e-02</internalNodes>
          <leafValues>
            7.6232165098190308e-02 -5.6461060047149658e-01</leafValues></_>
        <_>
          <internalNodes>
            0 -1 11 -4.7051452100276947e-02</internalNodes>
          <leafValues>
            -1.0676180124282837e+00 5.4800231009721756e-02</leafValues></_>
        <_>
          <internalNodes>
            0 -1 305 1.6469539841637015e-03</internalNodes>
          <leafValues>
            1.3936322927474976e-01 -3.7843024730682373e-01</leafValues></_>
        <_>
          <internalNodes>
            0 -1 369 -4.5904648141004145e-04</internalNodes>
          <leafValues>
            -1.6322965919971466e-01 2.4854530394077301e-01</leafValues></_>
        <_>
          <internalNodes>
            0 -1 160 -7.0178383029997349e-03</internalNodes>
          <leafValues>
            3.8524627685546875e-01 -1.6065204143524170e-01</leafValues></_>
        <_>
          <internalNodes>
            0 -1 545 -2.6667926460504532e-02</internalNodes>
          <leafValues>
            -7.2492462396621704e-01 6.9668360054492950e-02</leafValues></_>
        <_>
          <internalNodes>
            0 -1 73 6.0992743819952011e-03</internalNodes>
          <leafValues>
            -6.5127119421958923e-02 7.9296308755874634e-01</leafValues></_>
        <_>
          <internalNodes>
            0 -1 263 3.9025116711854935e-02</internalNodes>
          <leafValues>
            5.9804402291774750e-02 -9.4855964183807373e-01</leafValues></_>
        <_>
          <internalNodes>
            0 -1 452 -1.9918719772249460e-03</internalNodes>
          <leafValues>
            4.1402465105056763e-01 -1.1109226197004318e-01</leafValues></_>
        <_>
          <internalNodes>
            0 -1 164 3.0873320065438747e-04</internalNodes>
          <leafValues>
            1.3817512989044189e-01 -3.1082692742347717e-01</leafValues></_>
        <_>
          <internalNodes>
            0 -1 129 3.7879307637922466e-04</internalNodes>
          <leafValues>
            1.4486488699913025e-01 -3.1647127866744995e-01</leafValues></_>
        <_>
          <internalNodes>
            0 -1 579 -8.3812919910997152e-04</internalNodes>
          <leafValues>
            2.6825508475303650e-01 -1.7634709179401398e-01</leafValues></_>
        <_>
          <internalNodes>
            0 -1 468 -5.2084773778915405e-03</internalNodes>
          <leafValues>
            1.0870821475982666e+00 -5.9026900678873062e-02</leafValues></_>
        <_>
          <internalNodes>
            0 -1 624 -6.1894254758954048e-03</internalNodes>
          <leafValues>
            -5.9826970100402832e-01 8.0781325697898865e-02</leafValues></_>
        <_>
          <internalNodes>
            0 -1 504 6.2077525071799755e-03</internalNodes>
          <leafValues>
            1.1493249237537384e-01 -4.3252614140510559e-01</leafValues></_>
        <_>
          <internalNodes>
            0 -1 50 -3.5142853856086731e-02</internalNodes>
          <leafValues>
            -1.2769661843776703e-01 3.2048648595809937e-01</leafValues></_>
        <_>
          <internalNodes>
            0 -1 274 -2.5954735465347767e-03</internalNodes>
          <leafValues>
            -3.7537693977355957e-01 1.2954579293727875e-01</leafValues></_></weakClassifiers></_>
    <!-- stage 7 -->
    <_>
      <maxWeakCount>64</maxWeakCount>
      <stageThreshold>-7.3493415117263794e-01</stageThreshold>
      <weakClassifiers>
        <_>
          <internalNodes>
            0 -1 125 -1.5159057453274727e-02</internalNodes>
          <leafValues>
            7.0468172430992126e-02 -3.9858496189117432e-01</leafValues></_>
        <_>
          <internalNodes>
            0 -1 413 -4.1000242345035076e-03</internalNodes>
          <leafValues>
            3.1054466962814331e-01 -1.3722842931747437e-01</leafValues></_>
        <_>
          <internalNodes>
            0 -1 238 -4.6138322795741260e-04</internalNodes>
          <leafValues>
            3.2401946187019348e-01 -1.2929953634738922e-01</leafValues></_>
        <_>
          <internalNodes>
            0 -1 26 -4.0953754796646535e-04</internalNodes>
          <leafValues>
            2.2595725953578949e-01 -1.6728048026561737e-01</leafValues></_>
        <_>
          <internalNodes>
            0 -1 345 4.3438277207314968e-03</internalNodes>
          <leafValues>
            1.3890036940574646e-01 -3.4506627917289734e-01</leafValues></_>
        <_>
          <internalNodes>
            0 -1 126 -2.5521917268633842e-04</internalNodes>
          <leafValues>
            -2.7733108401298523e-01 2.0264181494712830e-01</leafValues></_>
        <_>
          <internalNodes>
            0 -1 272 -6.7017120309174061e-03</internalNodes>
          <leafValues>
            6.7477679252624512e-01 -7.6855823397636414e-02</leafValues></_>
        <_>
          <internalNodes>
            0 -1 184 4.3792771175503731e-03</internalNodes>
          <leafValues>
            1.3003134727478027e-01 -3.1895387172698975e-01</leafValues></_>
        <_>
          <internalNodes>
            0 -1 459 -2.3915334604680538e-03</internalNodes>
          <leafValues>
            2.6908892393112183e-01 -1.4949677884578705e-01</leafValues></_>
        <_>
          <internalNodes>
            0 -1 283 1.1280034482479095e-01</internalNodes>
          <leafValues>
            6.2487371265888214e-02 -1.1847741603851318e+00</leafValues></_>
        <_>
          <internalNodes>
            0 -1 602 -4.5443465933203697e-03</internalNodes>
          <leafValues>
            1.9472031295299530e-01 -2.3576723039150238e-01</leafValues></_>
        <_>
          <internalNodes>
            0 -1 201 -1.7662912607192993e-01</internalNodes>
          <leafValues>
            -1.0402970761060715e-01 4.1258379817008972e-01</leafValues></_>
        <_>
          <internalNodes>
            0 -1 529 -4.1573673486709595e-02</internalNodes>
          <leafValues>
            6.0112321376800537e-01 -8.9205846190452576e-02</leafValues></_>
        <_>
          <internalNodes>
            0 -1 123 -4.5180036686360836e-03</internalNodes>
          <leafValues>
            6.0627794265747070e-01 -8.3977736532688141e-02</leafValues></_>
        <_>
          <internalNodes>
            0 -1 212 -4.7119790688157082e-03</internalNodes>
          <leafValues>
            -4.2904335260391235e-01 1.1476839333772659e-01</leafValues></_>
        <_>
          <internalNodes>
            0 -1 594 -7.5296149589121342e-03</internalNodes>
          <leafValues>
            7.9602748155593872e-01 -6.4493238925933838e-02</leafValues></_>
        <_>
          <internalNodes>
            0 -1 174 3.0520111322402954e-03</internalNodes>
          <leafValues>
            -9.9596992135047913e-02 4.2925935983657837e-01</leafValues></_>
        <_>
          <internalNodes>
            0 -1 56 1.1574595421552658e-01</internalNodes>
          <leafValues>
            5.0777480006217957e-02 -8.4225797653198242e-01</leafValues></_>
        <_>
          <internalNodes>
            0 -1 268 -6.7854654043912888e-03</internalNodes>
          <leafValues>
            -2.5497496128082275e-01 1.5997904539108276e-01</leafValues></_>
        <_>
          <internalNodes>
            0 -1 527 5.5173819418996572e-04</internalNodes>
          <leafValues>
            -9.4095863401889801e-02 5.5294829607009888e-01</leafValues></_>
        <_>
          <internalNodes>
            0 -1 296 1.6441332409158349e-03</internalNodes>
          <leafValues>
            1.3188047707080841e-01 -3.7250697612762451e-01</leafValues></_>
        <_>
          <internalNodes>
            0 -1 285 -3.9551416411995888e-03</internalNodes>
          <leafValues>
            -2.4353469908237457e-01 1.6588889062404633e-01</leafValues></_>
        <_>
          <internalNodes>
            0 -1 122 -1.4114575460553169e-02</internalNodes>
          <leafValues>
            -8.2606542110443115e-01 5.2779201418161392e-02</leafValues></_>
        <_>
          <internalNodes>
            0 -1 210 -1.5303028747439384e-02</internalNodes>
          <leafValues>
            4.0744104981422424e-01 -1.1866470426321030e-01</leafValues></_>
        <_>
          <internalNodes>
            0 -1 186 1.0209101252257824e-02</internalNodes>
          <leafValues>
            -7.7231913805007935e-02 7.7363157272338867e-01</leafValues></_>
        <_>
          <internalNodes>
            0 -1 466 8.1034470349550247e-03</internalNodes>
          <leafValues>
            -8.9508049190044403e-02 5.2660292387008667e-01</leafValues></_>
        <_>
          <internalNodes>
            0 -1 37 4.2014427483081818e-02</internalNodes>
          <leafValues>
            -6.5499059855937958e-02 6.6173344850540161e-01</leafValues></_>
        <_>
          <internalNodes>
            0 -1 145 1.0822137817740440e-02</internalNodes>
          <leafValues>
            1.0017713904380798e-01 -4.1927054524421692e-01</leafValues></_>
        <_>
          <internalNodes>
            0 -1 291 -6.1041151639074087e-04</internalNodes>
          <leafValues>
            -2.8642007708549500e-01 1.3247944414615631e-01</leafValues></_>
        <_>
          <internalNodes>
            0 -1 258 -1.2269256636500359e-02</internalNodes>
          <leafValues>
            6.7130124568939209e-01 -6.6486611962318420e-02</leafValues></_>
        <_>
          <internalNodes>
            0 -1 517 2.1723657846450806e-03</internalNodes>
          <leafValues>
            1.0708400607109070e-01 -3.7176486849784851e-01</leafValues></_>
        <_>
          <internalNodes>
            0 -1 541 -3.0702045187354088e-03</internalNodes>
          <leafValues>
            -3.2532921433448792e-01 1.1894875764846802e-01</leafValues></_>
        <_>
          <internalNodes>
            0 -1 204 1.2069288641214371e-03</internalNodes>
          <leafValues>
            2.3157039284706116e-01 -1.7292469739913940e-01</leafValues></_>
        <_>
          <internalNodes>
            0 -1 297 -1.8130708485841751e-03</internalNodes>
          <leafValues>
            7.8103601932525635e-01 -6.7510813474655151e-02</leafValues></_>
        <_>
          <internalNodes>
            0 -1 38 -2.9038816690444946e-02</internalNodes>
          <leafValues>
            -7.2853863239288330e-01 6.5609566867351532e-02</leafValues></_>
        <_>
          <internalNodes>
            0 -1 404 -6.0336431488394737e-03</internalNodes>
          <leafValues>
            3.6547160148620605e-01 -1.2228690087795258e-01</leafValues></_>
        <_>
          <internalNodes>
            0 -1 537 6.2335324473679066e-03</internalNodes>
          <leafValues>
            1.0328233987092972e-01 -4.2005306482315063e-01</leafValues></_>
        <_>
          <internalNodes>
            0 -1 464 -6.6769919358193874e-03</internalNodes>
          <leafValues>
            9.0986794233322144e-01 -6.8465329706668854e-02</leafValues></_>
        <_>
          <internalNodes>
            0 -1 532 -1.6424094792455435e-03</internalNodes>
          <leafValues>
            -2.5871759653091431e-01 1.7652939260005951e-01</leafValues></_>
        <_>
          <internalNodes>
            0 -1 293 -1.9680712372064590e-02</internalNodes>
          <leafValues>
            2.6028272509574890e-01 -1.9869066774845123e-01</leafValues></_>
        <_>
          <internalNodes>
            0 -1 427 -4.2990982532501221e-02</internalNodes>
          <leafValues>
            5.6101139634847641e-02 -8.8772636651992798e-01</leafValues></_>
        <_>
          <internalNodes>
            0 -1 188 -2.9758393764495850e-01</internalNodes>
          <leafValues>
            -1.5586960315704346e-01 3.0343750119209290e-01</leafValues></_>
        <_>
          <internalNodes>
            0 -1 552 2.6450213044881821e-03</internalNodes>
          <leafValues>
            -6.4994059503078461e-02 7.4612092971801758e-01</leafValues></_>
        <_>
          <internalNodes>
            0 -1 511 -4.7692917287349701e-03</internalNodes>
          <leafValues>
            3.2507139444351196e-01 -1.3890984654426575e-01</leafValues></_>
        <_>
          <internalNodes>
            0 -1 152 6.2968963757157326e-03</internalNodes>
          <leafValues>
            -8.1873655319213867e-02 6.0975015163421631e-01</leafValues></_>
        <_>
          <internalNodes>
            0 -1 79 8.9727509766817093e-03</internalNodes>
          <leafValues>
            5.3252480924129486e-02 -8.4994018077850342e-01</leafValues></_>
        <_>
          <internalNodes>
            0 -1 515 2.9529319144785404e-03</internalNodes>
          <leafValues>
            -9.6514143049716949e-02 4.6526530385017395e-01</leafValues></_>
        <_>
          <internalNodes>
            0 -1 494 -8.6367496987804770e-04</internalNodes>
          <leafValues>
            -3.6086085438728333e-01 1.3400280475616455e-01</leafValues></_>
        <_>
          <internalNodes>
            0 -1 397 -1.0954709723591805e-03</internalNodes>
          <leafValues>
            2.8488701581954956e-01 -1.6222365200519562e-01</leafValues></_>
        <_>
          <internalNodes>
            0 -1 596 6.7745712585747242e-03</internalNodes>
          <leafValues>
            -7.9786777496337891e-02 5.8371222019195557e-01</leafValues></_>
        <_>
          <internalNodes>
            0 -1 383 1.3448213040828705e-01</internalNodes>
          <leafValues>
            -8.8316410779953003e-02 5.9635275602340698e-01</leafValues></_>
        <_>
          <internalNodes>
            0 -1 371 1.3883460313081741e-02</internalNodes>
          <leafValues>
            7.5426526367664337e-02 -9.3370604515075684e-01</leafValues></_>
        <_>
          <internalNodes>
            0 -1 248 -7.0720352232456207e-04</internalNodes>
          <leafValues>
            4.2631042003631592e-01 -1.1162284016609192e-01</leafValues></_>
        <_>
          <internalNodes>
            0 -1 447 -8.3069354295730591e-02</internalNodes>
          <leafValues>
            -1.1982825994491577e+00 4.8183921724557877e-02</leafValues></_>
        <_>
          <internalNodes>
            0 -1 57 -2.2389908134937286e-01</internalNodes>
          <leafValues>
            8.1079608201980591e-01 -7.3094494640827179e-02</leafValues></_>
        <_>
          <internalNodes>
            0 -1 170 -1.9872531294822693e-02</internalNodes>
          <leafValues>
            -7.4961394071578979e-01 7.3607154190540314e-02</leafValues></_>
        <_>
          <internalNodes>
            0 -1 240 1.8436519801616669e-01</internalNodes>
          <leafValues>
            -4.0915273129940033e-02 1.8213275671005249e+00</leafValues></_>
        <_>
          <internalNodes>
            0 -1 261 -7.2743976488709450e-03</internalNodes>
          <leafValues>
            -1.4631315469741821e+00 4.3735686689615250e-02</leafValues></_>
        <_>
          <internalNodes>
            0 -1 354 -3.1791217625141144e-02</internalNodes>
          <leafValues>
            1.0480600595474243e+00 -4.7701839357614517e-02</leafValues></_>
        <_>
          <internalNodes>
            0 -1 380 -1.5790148172527552e-03</internalNodes>
          <leafValues>
            -3.1765380501747131e-01 1.5809278190135956e-01</leafValues></_>
        <_>
          <internalNodes>
            0 -1 381 9.5578813925385475e-03</internalNodes>
          <leafValues>
            1.1806089431047440e-01 -4.1582134366035461e-01</leafValues></_>
        <_>
          <internalNodes>
            0 -1 72 -3.5847751423716545e-03</internalNodes>
          <leafValues>
            -1.4620763063430786e-01 3.0275508761405945e-01</leafValues></_>
        <_>
          <internalNodes>
            0 -1 192 -5.5780515074729919e-02</internalNodes>
          <leafValues>
            8.6790293455123901e-02 -5.5984765291213989e-01</leafValues></_>
        <_>
          <internalNodes>
            0 -1 581 -4.2026504524983466e-04</internalNodes>
          <leafValues>
            -2.3616230487823486e-01 1.7071215808391571e-01</leafValues></_></weakClassifiers></_>
    <!-- stage 8 -->
    <_>
      <maxWeakCount>56</maxWeakCount>
      <stageThreshold>-5.6885439157485962e-01</stageThreshold>
      <weakClassifiers>
        <_>
          <internalNodes>
            0 -1 195 3.0063057318329811e-02</internalNodes>
          <leafValues>
            0. -1.3312939405441284e+00</leafValues></_>
        <_>
          <internalNodes>
            0 -1 536 -1.2082071043550968e-03</internalNodes>
          <leafValues>
            1.6054347157478333e-01 -2.8495749831199646e-01</leafValues></_>
        <_>
          <internalNodes>
            0 -1 614 4.6565039083361626e-03</internalNodes>
          <leafValues>
            -4.0627013891935349e-02 1.0045198202133179e+00</leafValues></_>
        <_>
          <internalNodes>
            0 -1 252 3.6053205840289593e-03</internalNodes>
          <leafValues>
            -2.2263832390308380e-01 1.9216214120388031e-01</leafValues></_>
        <_>
          <internalNodes>
            0 -1 530 -3.2536662183701992e-03</internalNodes>
          <leafValues>
            4.7383797168731689e-01 -1.0426758229732513e-01</leafValues></_>
        <_>
          <internalNodes>
            0 -1 406 -9.9421273916959763e-03</internalNodes>
          <leafValues>
            4.7813168168067932e-01 -1.0330672562122345e-01</leafValues></_>
        <_>
          <internalNodes>
            0 -1 303 -5.5305004119873047e-02</internalNodes>
          <leafValues>
            -6.4794652163982391e-02 6.8811368942260742e-01</leafValues></_>
        <_>
          <internalNodes>
            0 -1 137 -2.7065747417509556e-03</internalNodes>
          <leafValues>
            3.8797404617071152e-02 -1.8685858249664307e+00</leafValues></_>
        <_>
          <internalNodes>
            0 -1 565 -2.6602830737829208e-02</internalNodes>
          <leafValues>
            -6.0104034841060638e-02 6.5348267555236816e-01</leafValues></_>
        <_>
          <internalNodes>
            0 -1 407 -8.6174987256526947e-02</internalNodes>
          <leafValues>
            1.5102174878120422e-01 -2.6196852326393127e-01</leafValues></_>
        <_>
          <internalNodes>
            0 -1 484 2.4550943635404110e-03</internalNodes>
          <leafValues>
            -8.1305816769599915e-02 4.7632050514221191e-01</leafValues></_>
        <_>
          <internalNodes>
            0 -1 332 -2.4557910859584808e-02</internalNodes>
          <leafValues>
            -4.0961787104606628e-01 1.0272422432899475e-01</leafValues></_>
        <_>
          <internalNodes>
            0 -1 193 3.8351017981767654e-02</internalNodes>
          <leafValues>
            4.1572842746973038e-02 -1.5433199405670166e+00</leafValues></_>
        <_>
          <internalNodes>
            0 -1 593 -3.3166911453008652e-02</internalNodes>
          <leafValues>
            -8.2729339599609375e-02 6.0504275560379028e-01</leafValues></_>
        <_>
          <internalNodes>
            0 -1 483 -8.6049372330307961e-03</internalNodes>
          <leafValues>
            -5.1021552085876465e-01 8.0847077071666718e-02</leafValues></_>
        <_>
          <internalNodes>
            0 -1 20 -5.0351326353847980e-03</internalNodes>
          <leafValues>
            6.2552100419998169e-01 -7.4016891419887543e-02</leafValues></_>
        <_>
          <internalNodes>
            0 -1 271 1.7132032662630081e-03</internalNodes>
          <leafValues>
            -7.0533387362957001e-02 7.8217864036560059e-01</leafValues></_>
        <_>
          <internalNodes>
            0 -1 71 9.5539614558219910e-03</internalNodes>
          <leafValues>
            5.8013148605823517e-02 -8.7312138080596924e-01</leafValues></_>
        <_>
          <internalNodes>
            0 -1 61 1.4429255388677120e-03</internalNodes>
          <leafValues>
            -1.0427633672952652e-01 4.6871057152748108e-01</leafValues></_>
        <_>
          <internalNodes>
            0 -1 443 -1.8011830747127533e-02</internalNodes>
          <leafValues>
            -3.6287799477577209e-01 1.1078451573848724e-01</leafValues></_>
        <_>
          <internalNodes>
            0 -1 343 6.8641369580291212e-05</internalNodes>
          <leafValues>
            2.0928756892681122e-01 -1.9448877871036530e-01</leafValues></_>
        <_>
          <internalNodes>
            0 -1 528 -6.4040801953524351e-04</internalNodes>
          <leafValues>
            3.9901599287986755e-01 -1.2186292558908463e-01</leafValues></_>
        <_>
          <internalNodes>
            0 -1 548 -1.4955751597881317e-02</internalNodes>
          <leafValues>
            -3.9305931329727173e-01 1.2482696026563644e-01</leafValues></_>
        <_>
          <internalNodes>
            0 -1 576 9.9850163678638637e-05</internalNodes>
          <leafValues>
            1.4595338702201843e-01 -2.9585638642311096e-01</leafValues></_>
        <_>
          <internalNodes>
            0 -1 214 -9.2846417101100087e-04</internalNodes>
          <leafValues>
            5.0375097990036011e-01 -7.3846511542797089e-02</leafValues></_>
        <_>
          <internalNodes>
            0 -1 389 2.8350992943160236e-04</internalNodes>
          <leafValues>
            -1.2835055589675903e-01 3.1996428966522217e-01</leafValues></_>
        <_>
          <internalNodes>
            0 -1 394 -6.9691646785940975e-05</internalNodes>
          <leafValues>
            2.5820663571357727e-01 -1.8113884329795837e-01</leafValues></_>
        <_>
          <internalNodes>
            0 -1 267 -7.5994223356246948e-02</internalNodes>
          <leafValues>
            -5.9018594026565552e-01 7.5833514332771301e-02</leafValues></_>
        <_>
          <internalNodes>
            0 -1 496 -8.8408368173986673e-04</internalNodes>
          <leafValues>
            -2.3540028929710388e-01 2.1597506105899811e-01</leafValues></_>
        <_>
          <internalNodes>
            0 -1 236 2.6338873431086540e-03</internalNodes>
          <leafValues>
            -6.6009506583213806e-02 7.8757828474044800e-01</leafValues></_>
        <_>
          <internalNodes>
            0 -1 234 2.4432813748717308e-02</internalNodes>
          <leafValues>
            9.1507449746131897e-02 -5.9364825487136841e-01</leafValues></_>
        <_>
          <internalNodes>
            0 -1 189 -2.9001150280237198e-02</internalNodes>
          <leafValues>
            -3.9526477456092834e-01 1.2982490658760071e-01</leafValues></_>
        <_>
          <internalNodes>
            0 -1 92 3.5432144999504089e-02</internalNodes>
          <leafValues>
            6.1041109263896942e-02 -8.3133041858673096e-01</leafValues></_>
        <_>
          <internalNodes>
            0 -1 119 -5.2460661390796304e-04</internalNodes>
          <leafValues>
            -2.2698605060577393e-01 1.8976914882659912e-01</leafValues></_>
        <_>
          <internalNodes>
            0 -1 80 9.0278213610872626e-04</internalNodes>
          <leafValues>
            8.6492076516151428e-02 -5.1681256294250488e-01</leafValues></_>
        <_>
          <internalNodes>
            0 -1 342 -9.3058049678802490e-03</internalNodes>
          <leafValues>
            5.4427766799926758e-01 -8.9417807757854462e-02</leafValues></_>
        <_>
          <internalNodes>
            0 -1 42 -5.3814373910427094e-02</internalNodes>
          <leafValues>
            -5.0831967592239380e-01 9.6287801861763000e-02</leafValues></_>
        <_>
          <internalNodes>
            0 -1 540 -4.3596839532256126e-03</internalNodes>
          <leafValues>
            -3.4437978267669678e-01 1.3549645245075226e-01</leafValues></_>
        <_>
          <internalNodes>
            0 -1 542 -1.9934312440454960e-03</internalNodes>
          <leafValues>
            1.8630889058113098e-01 -2.6138257980346680e-01</leafValues></_>
        <_>
          <internalNodes>
            0 -1 607 9.3657728284597397e-03</internalNodes>
          <leafValues>
            -9.5171660184860229e-02 7.8858506679534912e-01</leafValues></_>
        <_>
          <internalNodes>
            0 -1 301 7.6733942842110991e-04</internalNodes>
          <leafValues>
            -1.8742649257183075e-01 2.6448976993560791e-01</leafValues></_>
        <_>
          <internalNodes>
            0 -1 566 2.1604364155791700e-04</internalNodes>
          <leafValues>
            -1.4779943227767944e-01 3.1334349513053894e-01</leafValues></_>
        <_>
          <internalNodes>
            0 -1 428 -7.5915679335594177e-03</internalNodes>
          <leafValues>
            -3.1976240873336792e-01 1.2994663417339325e-01</leafValues></_>
        <_>
          <internalNodes>
            0 -1 334 -6.2022451311349869e-04</internalNodes>
          <leafValues>
            -5.2796393632888794e-01 1.0130194574594498e-01</leafValues></_>
        <_>
          <internalNodes>
            0 -1 505 -4.6604722738265991e-03</internalNodes>
          <leafValues>
            1.0191979408264160e+00 -6.1561085283756256e-02</leafValues></_>
        <_>
          <internalNodes>
            0 -1 292 1.3692479114979506e-04</internalNodes>
          <leafValues>
            1.3879898190498352e-01 -3.6926975846290588e-01</leafValues></_>
        <_>
          <internalNodes>
            0 -1 54 -1.1723747593350708e-04</internalNodes>
          <leafValues>
            -3.2300403714179993e-01 1.5007400512695313e-01</leafValues></_>
        <_>
          <internalNodes>
            0 -1 111 5.9897458413615823e-04</internalNodes>
          <leafValues>
            -1.0763419419527054e-01 4.4020339846611023e-01</leafValues></_>
        <_>
          <internalNodes>
            0 -1 130 8.5247779497876763e-04</internalNodes>
          <leafValues>
            -1.5749964118003845e-01 2.7552056312561035e-01</leafValues></_>
        <_>
          <internalNodes>
            0 -1 475 -9.0302602620795369e-04</internalNodes>
          <leafValues>
            -2.6050508022308350e-01 1.5869596600532532e-01</leafValues></_>
        <_>
          <internalNodes>
            0 -1 223 5.8006998151540756e-02</internalNodes>
          <leafValues>
            -7.7566042542457581e-02 6.5682601928710938e-01</leafValues></_>
        <_>
          <internalNodes>
            0 -1 384 -3.4344629384577274e-03</internalNodes>
          <leafValues>
            2.0306177437305450e-01 -2.3164033889770508e-01</leafValues></_>
        <_>
          <internalNodes>
            0 -1 430 -1.3454341096803546e-03</internalNodes>
          <leafValues>
            -1.0005236864089966e+00 5.6548811495304108e-02</leafValues></_>
        <_>
          <internalNodes>
            0 -1 482 -3.3504933118820190e-02</internalNodes>
          <leafValues>
            -8.1440144777297974e-01 6.5657600760459900e-02</leafValues></_>
        <_>
          <internalNodes>
            0 -1 546 -3.0045919120311737e-03</internalNodes>
          <leafValues>
            1.0991121530532837e+00 -6.9213010370731354e-02</leafValues></_>
        <_>
          <internalNodes>
            0 -1 469 2.9113939963281155e-03</internalNodes>
          <leafValues>
            8.6414940655231476e-02 -5.3783768415451050e-01</leafValues></_></weakClassifiers></_>
    <!-- stage 9 -->
    <_>
      <maxWeakCount>50</maxWeakCount>
      <stageThreshold>-5.2620178461074829e-01</stageThreshold>
      <weakClassifiers>
        <_>
          <internalNodes>
            0 -1 28 4.5551922172307968e-02</internalNodes>
          <leafValues>
            1.4384104311466217e-01 -1.0551066398620605e+00</leafValues></_>
        <_>
          <internalNodes>
            0 -1 450 1.6700917854905128e-02</internalNodes>
