<?xml version="1.0"?>
<opencv_storage>
<cascade>
  <stageType>BOOST</stageType>
  <featureType>HAAR</featureType>
  <height>24</height>
  <width>24</width>
  <stageParams>
    <boostType>GAB</boostType>
    <minHitRate>1.</minHitRate>
    <maxFalseAlarm>1.0000000149011612e-01</maxFalseAlarm>
    <weightTrimRate>9.4999999999999996e-01</weightTrimRate>
    <maxDepth>1</maxDepth>
    <maxWeakCount>100</maxWeakCount></stageParams>
  <featureParams>
    <maxCatCount>0</maxCatCount>
    <featSize>1</featSize>
    <mode>ALL</mode></featureParams>
  <stageNum>12</stageNum>
  <stages>
    <!-- stage 0 -->
    <_>
      <maxWeakCount>33</maxWeakCount>
      <stageThreshold>-1.2794245481491089e+00</stageThreshold>
      <weakClassifiers>
        <_>
          <internalNodes>
            0 -1 175 8.5651073604822159e-03</internalNodes>
          <leafValues>
            -8.7823420763015747e-01 3.0273601412773132e-01</leafValues></_>
        <_>
          <internalNodes>
            0 -1 120 1.0810296237468719e-01</internalNodes>
          <leafValues>
            2.1679991483688354e-01 -1.0908323526382446e+00</leafValues></_>
        <_>
          <internalNodes>
            0 -1 596 -7.7222394756972790e-03</internalNodes>
          <leafValues>
            6.9798481464385986e-01 -2.6258394122123718e-01</leafValues></_>
        <_>
          <internalNodes>
            0 -1 174 3.1128744594752789e-03</internalNodes>
          <leafValues>
            -1.9941213726997375e-01 8.2671296596527100e-01</leafValues></_>
        <_>
          <internalNodes>
            0 -1 532 -4.3575860559940338e-02</internalNodes>
          <leafValues>
            -7.4192589521408081e-01 2.2486706078052521e-01</leafValues></_>
        <_>
          <internalNodes>
            0 -1 374 1.8092326354235411e-03</internalNodes>
          <leafValues>
            -2.3999902606010437e-01 7.5082814693450928e-01</leafValues></_>
        <_>
          <internalNodes>
            0 -1 16 3.0413474887609482e-03</internalNodes>
          <leafValues>
            -2.5101664662361145e-01 7.2763705253601074e-01</leafValues></_>
        <_>
          <internalNodes>
            0 -1 330 4.7307219356298447e-02</internalNodes>
          <leafValues>
            2.4672737717628479e-01 -6.2719744443893433e-01</leafValues></_>
        <_>
          <internalNodes>
            0 -1 49 7.1312405169010162e-02</internalNodes>
          <leafValues>
            1.4505772292613983e-01 -1.0947779417037964e+00</leafValues></_>
        <_>
          <internalNodes>
            0 -1 92 6.3914395868778229e-03</internalNodes>
          <leafValues>
            -2.0971688628196716e-01 6.6487383842468262e-01</leafValues></_>
        <_>
          <internalNodes>
            0 -1 301 -2.4267230182886124e-03</internalNodes>
          <leafValues>
            6.3280689716339111e-01 -2.3915314674377441e-01</leafValues></_>
        <_>
          <internalNodes>
            0 -1 38 1.0062313824892044e-01</internalNodes>
          <leafValues>
            1.3112378120422363e-01 -1.1104955673217773e+00</leafValues></_>
        <_>
          <internalNodes>
            0 -1 431 -2.7450680499896407e-04</internalNodes>
          <leafValues>
            6.8036311864852905e-01 -2.1947671473026276e-01</leafValues></_>
        <_>
          <internalNodes>
            0 -1 568 -3.5431603901088238e-03</internalNodes>
          <leafValues>
            1.0584450960159302e+00 -1.2587596476078033e-01</leafValues></_>
        <_>
          <internalNodes>
            0 -1 577 1.0899154469370842e-02</internalNodes>
          <leafValues>
            -1.7820352315902710e-01 8.0786198377609253e-01</leafValues></_>
        <_>
          <internalNodes>
            0 -1 108 1.2374303769320250e-03</internalNodes>
          <leafValues>
            -1.7767657339572906e-01 7.2386306524276733e-01</leafValues></_>
        <_>
          <internalNodes>
            0 -1 122 4.8498835414648056e-02</internalNodes>
          <leafValues>
            1.4540299773216248e-01 -9.6097534894943237e-01</leafValues></_>
        <_>
          <internalNodes>
            0 -1 62 4.4838339090347290e-02</internalNodes>
          <leafValues>
            1.2019821256399155e-01 -1.4732369184494019e+00</leafValues></_>
        <_>
          <internalNodes>
            0 -1 464 1.5693180263042450e-02</internalNodes>
          <leafValues>
            1.9007059931755066e-01 -5.7398772239685059e-01</leafValues></_>
        <_>
          <internalNodes>
            0 -1 608 5.1283314824104309e-03</internalNodes>
          <leafValues>
            -1.5733106434345245e-01 8.0440020561218262e-01</leafValues></_>
        <_>
          <internalNodes>
            0 -1 501 -3.3599252346903086e-03</internalNodes>
          <leafValues>
            7.6624655723571777e-01 -1.6291065514087677e-01</leafValues></_>
        <_>
          <internalNodes>
            0 -1 222 3.0033098533749580e-02</internalNodes>
          <leafValues>
            2.6651355624198914e-01 -4.6057966351509094e-01</leafValues></_>
        <_>
          <internalNodes>
            0 -1 7 -2.7518874034285545e-02</internalNodes>
          <leafValues>
            -5.3486204147338867e-01 2.2207167744636536e-01</leafValues></_>
        <_>
          <internalNodes>
            0 -1 450 8.0116186290979385e-03</internalNodes>
          <leafValues>
            2.1679629385471344e-01 -5.0212430953979492e-01</leafValues></_>
        <_>
          <internalNodes>
            0 -1 83 3.8809445686638355e-04</internalNodes>
          <leafValues>
            -3.7329748272895813e-01 3.4112894535064697e-01</leafValues></_>
        <_>
          <internalNodes>
            0 -1 509 1.0457470081746578e-02</internalNodes>
          <leafValues>
            -1.6918565332889557e-01 7.9322415590286255e-01</leafValues></_>
        <_>
          <internalNodes>
            0 -1 404 1.4490544563159347e-03</internalNodes>
          <leafValues>
            -2.1907244622707367e-01 5.1855701208114624e-01</leafValues></_>
        <_>
          <internalNodes>
            0 -1 311 -3.9298400282859802e-02</internalNodes>
          <leafValues>
            -7.8364413976669312e-01 1.5770415961742401e-01</leafValues></_>
        <_>
          <internalNodes>
            0 -1 469 6.7734554409980774e-02</internalNodes>
          <leafValues>
            1.7141851782798767e-01 -7.0028001070022583e-01</leafValues></_>
        <_>
          <internalNodes>
            0 -1 535 -3.4237969666719437e-03</internalNodes>
          <leafValues>
            7.4672925472259521e-01 -1.6774861514568329e-01</leafValues></_>
        <_>
          <internalNodes>
            0 -1 386 2.3550987243652344e-02</internalNodes>
          <leafValues>
            1.9783292710781097e-01 -6.4379382133483887e-01</leafValues></_>
        <_>
          <internalNodes>
            0 -1 216 6.1193155124783516e-03</internalNodes>
          <leafValues>
            -1.8482387065887451e-01 7.2046661376953125e-01</leafValues></_>
        <_>
          <internalNodes>
            0 -1 249 -5.2319001406431198e-04</internalNodes>
          <leafValues>
            4.8370915651321411e-01 -2.2983440756797791e-01</leafValues></_></weakClassifiers></_>
    <!-- stage 1 -->
    <_>
      <maxWeakCount>47</maxWeakCount>
      <stageThreshold>-1.3086832761764526e+00</stageThreshold>
      <weakClassifiers>
        <_>
          <internalNodes>
            0 -1 2 1.1194903403520584e-02</internalNodes>
          <leafValues>
            -6.5055710077285767e-01 2.6762208342552185e-01</leafValues></_>
        <_>
          <internalNodes>
            0 -1 192 4.1798636084422469e-04</internalNodes>
          <leafValues>
            2.1322877705097198e-01 -5.2522850036621094e-01</leafValues></_>
        <_>
          <internalNodes>
            0 -1 583 -5.1745593547821045e-02</internalNodes>
          <leafValues>
            7.8699755668640137e-01 -1.6413439810276031e-01</leafValues></_>
        <_>
          <internalNodes>
            0 -1 181 1.5940587036311626e-03</internalNodes>
          <leafValues>
            -2.6321944594383240e-01 3.6834543943405151e-01</leafValues></_>
        <_>
          <internalNodes>
            0 -1 534 -3.0532212927937508e-02</internalNodes>
          <leafValues>
            -3.2967206835746765e-01 2.7564823627471924e-01</leafValues></_>
        <_>
          <internalNodes>
            0 -1 29 5.1987925544381142e-03</internalNodes>
          <leafValues>
            -1.3261452317237854e-01 6.2616801261901855e-01</leafValues></_>
        <_>
          <internalNodes>
            0 -1 267 1.3886099681258202e-02</internalNodes>
          <leafValues>
            -1.5206098556518555e-01 5.1552933454513550e-01</leafValues></_>
        <_>
          <internalNodes>
            0 -1 236 1.0671744123101234e-02</internalNodes>
          <leafValues>
            -1.2001283466815948e-01 6.7959684133529663e-01</leafValues></_>
        <_>
          <internalNodes>
            0 -1 166 7.0078879594802856e-02</internalNodes>
          <leafValues>
            6.6118232905864716e-02 -1.4533449411392212e+00</leafValues></_>
        <_>
          <internalNodes>
            0 -1 230 -3.5939617082476616e-03</internalNodes>
          <leafValues>
            6.8662726879119873e-01 -1.4389570057392120e-01</leafValues></_>
        <_>
          <internalNodes>
            0 -1 252 2.7189970016479492e-02</internalNodes>
          <leafValues>
            1.2760609388351440e-01 -5.7885944843292236e-01</leafValues></_>
        <_>
          <internalNodes>
            0 -1 228 -1.2493918836116791e-01</internalNodes>
          <leafValues>
            -6.3560920953750610e-01 1.0969979315996170e-01</leafValues></_>
        <_>
          <internalNodes>
            0 -1 618 -4.3277889490127563e-03</internalNodes>
          <leafValues>
            5.6079965829849243e-01 -1.3937920331954956e-01</leafValues></_>
        <_>
          <internalNodes>
            0 -1 615 -5.2332505583763123e-04</internalNodes>
          <leafValues>
            6.9553750753402710e-01 -1.2098494917154312e-01</leafValues></_>
        <_>
          <internalNodes>
            0 -1 592 3.9794798940420151e-03</internalNodes>
          <leafValues>
            -1.0798336565494537e-01 7.9486656188964844e-01</leafValues></_>
        <_>
          <internalNodes>
            0 -1 429 -1.8056568223983049e-03</internalNodes>
          <leafValues>
            5.0090628862380981e-01 -1.5389800071716309e-01</leafValues></_>
        <_>
          <internalNodes>
            0 -1 182 1.1931173503398895e-02</internalNodes>
          <leafValues>
            -1.5169434249401093e-01 5.5033236742019653e-01</leafValues></_>
        <_>
          <internalNodes>
            0 -1 448 2.9178135446272790e-04</internalNodes>
          <leafValues>
            1.5025526285171509e-01 -4.4163310527801514e-01</leafValues></_>
        <_>
          <internalNodes>
            0 -1 142 -7.8968226909637451e-02</internalNodes>
          <leafValues>
            -5.5386704206466675e-01 1.4823640882968903e-01</leafValues></_>
        <_>
          <internalNodes>
            0 -1 495 -5.0732918083667755e-02</internalNodes>
          <leafValues>
            -2.1248898506164551e+00 7.2281099855899811e-02</leafValues></_>
        <_>
          <internalNodes>
            0 -1 234 5.4337182082235813e-03</internalNodes>
          <leafValues>
            -9.0805746614933014e-02 9.4703328609466553e-01</leafValues></_>
        <_>
          <internalNodes>
            0 -1 549 -6.6275291144847870e-02</internalNodes>
          <leafValues>
            8.8575297594070435e-01 -9.5376744866371155e-02</leafValues></_>
        <_>
          <internalNodes>
            0 -1 161 2.8669747989624739e-03</internalNodes>
          <leafValues>
            1.1757136881351471e-01 -6.0175633430480957e-01</leafValues></_>
        <_>
          <internalNodes>
            0 -1 377 -8.8679762557148933e-03</internalNodes>
          <leafValues>
            5.2120220661163330e-01 -1.3372558355331421e-01</leafValues></_>
        <_>
          <internalNodes>
            0 -1 415 7.5133764185011387e-03</internalNodes>
          <leafValues>
            -1.7837519943714142e-01 4.2845097184181213e-01</leafValues></_>
        <_>
          <internalNodes>
            0 -1 537 1.9174462067894638e-04</internalNodes>
          <leafValues>
            1.9912654161453247e-01 -4.0062889456748962e-01</leafValues></_>
        <_>
          <internalNodes>
            0 -1 360 -1.6972960438579321e-03</internalNodes>
          <leafValues>
            3.8428401947021484e-01 -2.2063130140304565e-01</leafValues></_>
        <_>
          <internalNodes>
            0 -1 212 4.5372350141406059e-03</internalNodes>
          <leafValues>
            -1.6661368310451508e-01 4.6899503469467163e-01</leafValues></_>
        <_>
          <internalNodes>
            0 -1 603 3.6293016746640205e-03</internalNodes>
          <leafValues>
            -1.0282900929450989e-01 7.4109578132629395e-01</leafValues></_>
        <_>
          <internalNodes>
            0 -1 478 1.5737994108349085e-03</internalNodes>
          <leafValues>
            -2.6228588819503784e-01 2.5459510087966919e-01</leafValues></_>
        <_>
          <internalNodes>
            0 -1 113 6.2995562329888344e-03</internalNodes>
          <leafValues>
            -8.1696934998035431e-02 1.0380787849426270e+00</leafValues></_>
        <_>
          <internalNodes>
            0 -1 165 7.9675674438476563e-02</internalNodes>
          <leafValues>
            7.4291355907917023e-02 -1.0865114927291870e+00</leafValues></_>
        <_>
          <internalNodes>
            0 -1 475 -8.6913136765360832e-03</internalNodes>
          <leafValues>
            6.2231940031051636e-01 -1.1775807291269302e-01</leafValues></_>
        <_>
          <internalNodes>
            0 -1 299 -8.7960675358772278e-02</internalNodes>
          <leafValues>
            -1.3030836582183838e+00 6.6275827586650848e-02</leafValues></_>
        <_>
          <internalNodes>
            0 -1 150 -4.0838599205017090e-02</internalNodes>
          <leafValues>
            -6.4411580562591553e-01 1.0753125697374344e-01</leafValues></_>
        <_>
          <internalNodes>
            0 -1 33 -6.7485123872756958e-02</internalNodes>
          <leafValues>
            4.4849196076393127e-01 -1.5263308584690094e-01</leafValues></_>
        <_>
          <internalNodes>
            0 -1 380 2.6841962710022926e-02</internalNodes>
          <leafValues>
            1.1672467738389969e-01 -6.7594242095947266e-01</leafValues></_>
        <_>
          <internalNodes>
            0 -1 541 -1.4529836177825928e-01</internalNodes>
          <leafValues>
            -1.2944777309894562e-01 6.2921714782714844e-01</leafValues></_>
        <_>
          <internalNodes>
            0 -1 521 8.5649150423705578e-04</internalNodes>
          <leafValues>
            -2.0650748908519745e-01 3.7948161363601685e-01</leafValues></_>
        <_>
          <internalNodes>
            0 -1 488 1.5310309827327728e-03</internalNodes>
          <leafValues>
            -1.2785413861274719e-01 6.9945824146270752e-01</leafValues></_>
        <_>
          <internalNodes>
            0 -1 97 -5.7835291954688728e-05</internalNodes>
          <leafValues>
            2.9354235529899597e-01 -2.6924031972885132e-01</leafValues></_>
        <_>
          <internalNodes>
            0 -1 576 5.7087359018623829e-03</internalNodes>
          <leafValues>
            -1.2466218322515488e-01 5.6514167785644531e-01</leafValues></_>
        <_>
          <internalNodes>
            0 -1 205 -9.5699150115251541e-03</internalNodes>
          <leafValues>
            1.0024776458740234e+00 -8.4231026470661163e-02</leafValues></_>
        <_>
          <internalNodes>
            0 -1 105 2.6498190127313137e-03</internalNodes>
          <leafValues>
            1.3070441782474518e-01 -5.2084988355636597e-01</leafValues></_>
        <_>
          <internalNodes>
            0 -1 398 -7.7680470421910286e-03</internalNodes>
          <leafValues>
            9.6124626696109772e-02 -7.9554718732833862e-01</leafValues></_>
        <_>
          <internalNodes>
            0 -1 400 -2.3337823152542114e-01</internalNodes>
          <leafValues>
            -4.1658949851989746e-01 1.7564217746257782e-01</leafValues></_>
        <_>
          <internalNodes>
            0 -1 358 -6.7198225297033787e-03</internalNodes>
          <leafValues>
            -4.1662681102752686e-01 1.6984771192073822e-01</leafValues></_></weakClassifiers></_>
    <!-- stage 2 -->
    <_>
      <maxWeakCount>64</maxWeakCount>
      <stageThreshold>-1.0650995969772339e+00</stageThreshold>
      <weakClassifiers>
        <_>
          <internalNodes>
            0 -1 4 9.8226815462112427e-03</internalNodes>
          <leafValues>
            -6.7781794071197510e-01 -1.0256770066916943e-02</leafValues></_>
        <_>
          <internalNodes>
            0 -1 96 3.8275204598903656e-02</internalNodes>
          <leafValues>
            1.5806527435779572e-01 -5.7948333024978638e-01</leafValues></_>
        <_>
          <internalNodes>
            0 -1 617 -6.2587568536400795e-03</internalNodes>
          <leafValues>
            4.5104622840881348e-01 -2.0128268003463745e-01</leafValues></_>
        <_>
          <internalNodes>
            0 -1 140 -3.1031125690788031e-03</internalNodes>
          <leafValues>
            4.9813163280487061e-01 -1.2565185129642487e-01</leafValues></_>
        <_>
          <internalNodes>
            0 -1 531 -2.3254766128957272e-03</internalNodes>
          <leafValues>
            4.8454797267913818e-01 -1.5253336727619171e-01</leafValues></_>
        <_>
          <internalNodes>
            0 -1 58 4.1515186429023743e-02</internalNodes>
          <leafValues>
            1.0697929561138153e-01 -6.7327392101287842e-01</leafValues></_>
        <_>
          <internalNodes>
            0 -1 506 1.8994179554283619e-03</internalNodes>
          <leafValues>
            -1.8517252802848816e-01 3.2347127795219421e-01</leafValues></_>
        <_>
          <internalNodes>
            0 -1 106 -7.9544320702552795e-02</internalNodes>
          <leafValues>
            4.0163132548332214e-01 -1.4276422560214996e-01</leafValues></_>
        <_>
          <internalNodes>
            0 -1 143 -6.6231051459908485e-03</internalNodes>
          <leafValues>
            7.9445016384124756e-01 -7.7868089079856873e-02</leafValues></_>
        <_>
          <internalNodes>
            0 -1 606 -5.4510710760951042e-03</internalNodes>
          <leafValues>
            4.3389892578125000e-01 -1.2225157767534256e-01</leafValues></_>
        <_>
          <internalNodes>
            0 -1 82 -6.5557705238461494e-03</internalNodes>
          <leafValues>
            -2.2450736165046692e-01 2.1979020535945892e-01</leafValues></_>
        <_>
          <internalNodes>
            0 -1 88 1.8735588528215885e-03</internalNodes>
          <leafValues>
            -2.0440486073493958e-01 2.7872103452682495e-01</leafValues></_>
        <_>
          <internalNodes>
            0 -1 310 -3.1143702566623688e-02</internalNodes>
          <leafValues>
            -1.0158184766769409e+00 5.5514127016067505e-02</leafValues></_>
        <_>
          <internalNodes>
            0 -1 581 5.3174952045083046e-03</internalNodes>
          <leafValues>
            -1.1838198453187943e-01 4.4000971317291260e-01</leafValues></_>
        <_>
          <internalNodes>
            0 -1 472 -4.1169978678226471e-02</internalNodes>
          <leafValues>
            -8.8899528980255127e-01 7.1675352752208710e-02</leafValues></_>
        <_>
          <internalNodes>
            0 -1 517 8.5373427718877792e-03</internalNodes>
          <leafValues>
            1.0638692229986191e-01 -5.6866759061813354e-01</leafValues></_>
        <_>
          <internalNodes>
            0 -1 314 1.8393590580672026e-03</internalNodes>
          <leafValues>
            -1.0160426050424576e-01 5.9807461500167847e-01</leafValues></_>
        <_>
          <internalNodes>
            0 -1 385 -7.5571620836853981e-03</internalNodes>
          <leafValues>
            5.0580149888992310e-01 -1.1819352954626083e-01</leafValues></_>
        <_>
          <internalNodes>
            0 -1 384 4.3288204818964005e-02</internalNodes>
          <leafValues>
            9.5433428883552551e-02 -5.6278008222579956e-01</leafValues></_>
        <_>
          <internalNodes>
            0 -1 168 1.0128207504749298e-02</internalNodes>
          <leafValues>
            -6.5857112407684326e-02 1.0281534194946289e+00</leafValues></_>
        <_>
          <internalNodes>
            0 -1 610 -7.7605927363038063e-03</internalNodes>
          <leafValues>
            4.6980610489845276e-01 -1.1730702221393585e-01</leafValues></_>
        <_>
          <internalNodes>
            0 -1 382 -2.1887835115194321e-02</internalNodes>
          <leafValues>
            -7.4736058712005615e-01 7.3126271367073059e-02</leafValues></_>
        <_>
          <internalNodes>
            0 -1 406 -1.0899034095928073e-03</internalNodes>
          <leafValues>
            3.9231833815574646e-01 -1.4277397096157074e-01</leafValues></_>
        <_>
          <internalNodes>
            0 -1 207 7.1854010457172990e-04</internalNodes>
          <leafValues>
            1.2653872370719910e-01 -4.2252737283706665e-01</leafValues></_>
        <_>
          <internalNodes>
            0 -1 278 1.7355642921756953e-04</internalNodes>
          <leafValues>
            1.5478664636611938e-01 -3.6629718542098999e-01</leafValues></_>
        <_>
          <internalNodes>
            0 -1 260 -7.8000207431614399e-03</internalNodes>
          <leafValues>
            -4.1792005300521851e-01 1.2878128886222839e-01</leafValues></_>
        <_>
          <internalNodes>
            0 -1 233 1.0839198715984821e-02</internalNodes>
          <leafValues>
            -7.3713771998882294e-02 9.2223989963531494e-01</leafValues></_>
        <_>
          <internalNodes>
            0 -1 345 4.7959079965949059e-03</internalNodes>
          <leafValues>
            -1.2192358076572418e-01 5.0840675830841064e-01</leafValues></_>
        <_>
          <internalNodes>
            0 -1 325 7.2841846849769354e-04</internalNodes>
          <leafValues>
            -1.6507370769977570e-01 3.9171406626701355e-01</leafValues></_>
        <_>
          <internalNodes>
            0 -1 273 -1.1111288331449032e-03</internalNodes>
          <leafValues>
            4.1265690326690674e-01 -1.4415007829666138e-01</leafValues></_>
        <_>
          <internalNodes>
            0 -1 265 6.5076642204076052e-04</internalNodes>
          <leafValues>
            -1.0461974889039993e-01 5.1997870206832886e-01</leafValues></_>
        <_>
          <internalNodes>
            0 -1 487 -9.2008961364626884e-03</internalNodes>
          <leafValues>
            -7.4174493551254272e-01 7.6621063053607941e-02</leafValues></_>
        <_>
          <internalNodes>
            0 -1 405 -3.9109669160097837e-04</internalNodes>
          <leafValues>
            3.6888405680656433e-01 -1.3745480775833130e-01</leafValues></_>
        <_>
          <internalNodes>
            0 -1 139 -7.7251517213881016e-03</internalNodes>
          <leafValues>
            -2.8241759538650513e-01 1.7220945656299591e-01</leafValues></_>
        <_>
          <internalNodes>
            0 -1 593 4.5323828235268593e-03</internalNodes>
          <leafValues>
            -9.9536374211311340e-02 6.0695141553878784e-01</leafValues></_>
        <_>
          <internalNodes>
            0 -1 547 5.7743791490793228e-02</internalNodes>
          <leafValues>
            9.9420003592967987e-02 -6.2936079502105713e-01</leafValues></_>
        <_>
          <internalNodes>
            0 -1 515 -7.5627174228429794e-03</internalNodes>
          <leafValues>
            -4.2115333676338196e-01 1.4319449663162231e-01</leafValues></_>
        <_>
          <internalNodes>
            0 -1 542 2.3413724265992641e-03</internalNodes>
          <leafValues>
            1.0675193369388580e-01 -5.3933221101760864e-01</leafValues></_>
        <_>
          <internalNodes>
            0 -1 214 -8.1329114735126495e-02</internalNodes>
          <leafValues>
            9.8581135272979736e-02 -6.6498482227325439e-01</leafValues></_>
        <_>
          <internalNodes>
            0 -1 59 2.3800465278327465e-03</internalNodes>
          <leafValues>
            -1.2383273243904114e-01 4.3413281440734863e-01</leafValues></_>
        <_>
          <internalNodes>
            0 -1 440 -1.9356090575456619e-02</internalNodes>
          <leafValues>
            6.2053477764129639e-01 -9.2429198324680328e-02</leafValues></_>
        <_>
          <internalNodes>
            0 -1 369 2.9369657859206200e-03</internalNodes>
          <leafValues>
            1.2062805891036987e-01 -4.6195545792579651e-01</leafValues></_>
        <_>
          <internalNodes>
            0 -1 89 1.0334065556526184e-01</internalNodes>
          <leafValues>
            1.1671091616153717e-01 -5.2578359842300415e-01</leafValues></_>
        <_>
          <internalNodes>
            0 -1 45 -6.7562432959675789e-03</internalNodes>
          <leafValues>
            -6.0095822811126709e-01 1.0848301649093628e-01</leafValues></_>
        <_>
          <internalNodes>
            0 -1 104 5.1394656300544739e-02</internalNodes>
          <leafValues>
            7.8777216374874115e-02 -8.0065101385116577e-01</leafValues></_>
        <_>
          <internalNodes>
            0 -1 283 2.8062448836863041e-03</internalNodes>
          <leafValues>
            -1.3269726932048798e-01 5.1344335079193115e-01</leafValues></_>
        <_>
          <internalNodes>
            0 -1 15 5.2305320277810097e-03</internalNodes>
          <leafValues>
            -2.7301144599914551e-01 2.0424260199069977e-01</leafValues></_>
        <_>
          <internalNodes>
            0 -1 55 -4.1263243183493614e-03</internalNodes>
          <leafValues>
            5.6882911920547485e-01 -9.8010823130607605e-02</leafValues></_>
        <_>
          <internalNodes>
            0 -1 235 -9.0752365067601204e-03</internalNodes>
          <leafValues>
            -5.5465501546859741e-01 1.4916348457336426e-01</leafValues></_>
        <_>
          <internalNodes>
            0 -1 392 2.2815065458416939e-03</internalNodes>
          <leafValues>
            2.1137055754661560e-01 -3.4785348176956177e-01</leafValues></_>
        <_>
          <internalNodes>
            0 -1 432 6.1621738132089376e-04</internalNodes>
          <leafValues>
            2.0925663411617279e-01 -2.2567254304885864e-01</leafValues></_>
        <_>
          <internalNodes>
            0 -1 280 1.3293374795466661e-03</internalNodes>
          <leafValues>
            6.7695192992687225e-02 -7.9161077737808228e-01</leafValues></_>
        <_>
          <internalNodes>
            0 -1 80 1.1676997877657413e-02</internalNodes>
          <leafValues>
            -1.2268285453319550e-01 4.4142106175422668e-01</leafValues></_>
        <_>
          <internalNodes>
            0 -1 393 -1.3902803882956505e-02</internalNodes>
          <leafValues>
            -6.1311864852905273e-01 8.7394133210182190e-02</leafValues></_>
        <_>
          <internalNodes>
            0 -1 570 -6.4189312979578972e-04</internalNodes>
          <leafValues>
            4.6319514513015747e-01 -1.1412673443555832e-01</leafValues></_>
        <_>
          <internalNodes>
            0 -1 78 1.4768331311643124e-03</internalNodes>
          <leafValues>
            -9.3946419656276703e-02 5.2584791183471680e-01</leafValues></_>
        <_>
          <internalNodes>
            0 -1 338 -1.5343764796853065e-02</internalNodes>
          <leafValues>
            -6.2938654422760010e-01 8.6841017007827759e-02</leafValues></_>
        <_>
          <internalNodes>
            0 -1 420 1.0581331327557564e-02</internalNodes>
          <leafValues>
            2.3546318709850311e-01 -2.2916352748870850e-01</leafValues></_>
        <_>
          <internalNodes>
            0 -1 452 -9.2310421168804169e-03</internalNodes>
          <leafValues>
            2.7515584230422974e-01 -2.1802228689193726e-01</leafValues></_>
        <_>
          <internalNodes>
            0 -1 409 -1.9187208265066147e-02</internalNodes>
          <leafValues>
            -5.7652199268341064e-01 1.0539557784795761e-01</leafValues></_>
        <_>
          <internalNodes>
            0 -1 281 3.8416644092649221e-03</internalNodes>
          <leafValues>
            -1.0723015666007996e-01 6.0120987892150879e-01</leafValues></_>
        <_>
          <internalNodes>
            0 -1 127 5.9035960584878922e-02</internalNodes>
          <leafValues>
            7.1493074297904968e-02 -1.1006201505661011e+00</leafValues></_>
        <_>
          <internalNodes>
            0 -1 129 1.3397459406405687e-03</internalNodes>
          <leafValues>
            -1.3900037109851837e-01 4.0854331851005554e-01</leafValues></_>
        <_>
          <internalNodes>
            0 -1 567 -3.8888328708708286e-04</internalNodes>
          <leafValues>
            -2.5212189555168152e-01 2.0770011842250824e-01</leafValues></_></weakClassifiers></_>
    <!-- stage 3 -->
    <_>
      <maxWeakCount>66</maxWeakCount>
      <stageThreshold>-9.3435746431350708e-01</stageThreshold>
      <weakClassifiers>
        <_>
          <internalNodes>
            0 -1 213 1.4776262454688549e-02</internalNodes>
          <leafValues>
            -6.7856150865554810e-01 -5.4427202790975571e-02</leafValues></_>
        <_>
          <internalNodes>
            0 -1 8 3.6208976060152054e-02</internalNodes>
          <leafValues>
            -2.2273372113704681e-01 2.2317603230476379e-01</leafValues></_>
        <_>
          <internalNodes>
            0 -1 609 -1.0249152779579163e-02</internalNodes>
          <leafValues>
            -1.8869966268539429e-01 2.4537058174610138e-01</leafValues></_>
        <_>
          <internalNodes>
            0 -1 399 4.6169897541403770e-03</internalNodes>
          <leafValues>
            -1.4012923836708069e-01 3.3983471989631653e-01</leafValues></_>
        <_>
          <internalNodes>
            0 -1 357 2.4786207824945450e-02</internalNodes>
          <leafValues>
            1.0374253988265991e-01 -4.6254345774650574e-01</leafValues></_>
        <_>
          <internalNodes>
            0 -1 467 3.2261028885841370e-02</internalNodes>
          <leafValues>
            -5.1899097859859467e-02 6.1286580562591553e-01</leafValues></_>
        <_>
          <internalNodes>
            0 -1 605 4.9379322445020080e-04</internalNodes>
          <leafValues>
            -1.2870171666145325e-01 3.9088734984397888e-01</leafValues></_>
        <_>
          <internalNodes>
            0 -1 109 -1.3290045782923698e-02</internalNodes>
          <leafValues>
            7.6442855596542358e-01 -7.2056658565998077e-02</leafValues></_>
        <_>
          <internalNodes>
            0 -1 546 -2.7355536818504333e-02</internalNodes>
          <leafValues>
            -1.2356982231140137e+00 6.9047957658767700e-02</leafValues></_>
        <_>
          <internalNodes>
            0 -1 133 -6.0746148228645325e-02</internalNodes>
          <leafValues>
            -7.1937173604965210e-01 5.1946274936199188e-02</leafValues></_>
        <_>
          <internalNodes>
            0 -1 37 2.3439273354597390e-04</internalNodes>
          <leafValues>
            1.3812997937202454e-01 -3.2252317667007446e-01</leafValues></_>
        <_>
          <internalNodes>
            0 -1 624 6.9562853313982487e-03</internalNodes>
          <leafValues>
            -6.6936649382114410e-02 7.6110142469406128e-01</leafValues></_>
        <_>
          <internalNodes>
            0 -1 261 -2.9054651968181133e-03</internalNodes>
          <leafValues>
            4.8603281378746033e-01 -1.0078533738851547e-01</leafValues></_>
        <_>
          <internalNodes>
            0 -1 270 -1.9871881231665611e-03</internalNodes>
          <leafValues>
            3.3749583363533020e-01 -1.1461003869771957e-01</leafValues></_>
        <_>
          <internalNodes>
            0 -1 296 -8.7478727102279663e-02</internalNodes>
          <leafValues>
            -5.3847211599349976e-01 8.0374561250209808e-02</leafValues></_>
        <_>
          <internalNodes>
            0 -1 229 -1.2394468300044537e-02</internalNodes>
          <leafValues>
            5.4967850446701050e-01 -7.7201977372169495e-02</leafValues></_>
        <_>
          <internalNodes>
            0 -1 124 -5.2729165181517601e-03</internalNodes>
          <leafValues>
            -3.5579517483711243e-01 1.0985542088747025e-01</leafValues></_>
        <_>
          <internalNodes>
            0 -1 149 3.9130602963268757e-03</internalNodes>
          <leafValues>
            1.4314186573028564e-01 -3.7674197554588318e-01</leafValues></_>
        <_>
          <internalNodes>
            0 -1 590 -2.7011639904230833e-03</internalNodes>
          <leafValues>
            4.0625944733619690e-01 -1.0812095552682877e-01</leafValues></_>
        <_>
          <internalNodes>
            0 -1 524 -5.9433840215206146e-03</internalNodes>
          <leafValues>
            3.9370140433311462e-01 -1.0349689424037933e-01</leafValues></_>
        <_>
          <internalNodes>
            0 -1 575 -3.4141585230827332e-02</internalNodes>
          <leafValues>
            2.4787838757038116e-01 -1.7304602265357971e-01</leafValues></_>
        <_>
          <internalNodes>
            0 -1 559 -5.4066628217697144e-03</internalNodes>
          <leafValues>
            -6.0460382699966431e-01 7.7616311609745026e-02</leafValues></_>
        <_>
          <internalNodes>
            0 -1 5 -2.9494851827621460e-02</internalNodes>
          <leafValues>
            -8.8600152730941772e-01 5.9664819389581680e-02</leafValues></_>
        <_>
          <internalNodes>
            0 -1 344 1.3168130069971085e-02</internalNodes>
          <leafValues>
            -1.3284040987491608e-01 3.5526484251022339e-01</leafValues></_>
        <_>
          <internalNodes>
            0 -1 72 -1.4909980818629265e-02</internalNodes>
          <leafValues>
            -8.4874206781387329e-01 6.1247743666172028e-02</leafValues></_>
        <_>
          <internalNodes>
            0 -1 613 2.1804051939398050e-03</internalNodes>
          <leafValues>
            -4.8297431319952011e-02 1.3374971151351929e+00</leafValues></_>
        <_>
          <internalNodes>
            0 -1 626 -2.9139081016182899e-03</internalNodes>
          <leafValues>
            5.7564049959182739e-01 -8.4673844277858734e-02</leafValues></_>
        <_>
          <internalNodes>
            0 -1 147 -2.5204115081578493e-03</internalNodes>
          <leafValues>
            4.7553405165672302e-01 -9.3119964003562927e-02</leafValues></_>
        <_>
          <internalNodes>
            0 -1 71 7.9702567309141159e-03</internalNodes>
          <leafValues>
            5.1881361752748489e-02 -1.2553777694702148e+00</leafValues></_>
        <_>
          <internalNodes>
            0 -1 170 -1.7074525821954012e-03</internalNodes>
          <leafValues>
            4.6769937872886658e-01 -8.9597679674625397e-02</leafValues></_>
        <_>
          <internalNodes>
            0 -1 0 -1.0902780923061073e-04</internalNodes>
          <leafValues>
            -3.0587488412857056e-01 1.3307285308837891e-01</leafValues></_>
        <_>
          <internalNodes>
            0 -1 512 4.7477998305112123e-04</internalNodes>
          <leafValues>
            1.2021459639072418e-01 -3.2057201862335205e-01</leafValues></_>
        <_>
          <internalNodes>
            0 -1 372 -3.7509464891627431e-04</internalNodes>
          <leafValues>
            -2.7549299597740173e-01 1.5226012468338013e-01</leafValues></_>
        <_>
          <internalNodes>
            0 -1 321 7.0867966860532761e-04</internalNodes>
          <leafValues>
            -7.7594526112079620e-02 5.8786439895629883e-01</leafValues></_>
        <_>
          <internalNodes>
            0 -1 185 1.4385093236342072e-03</internalNodes>
          <leafValues>
            -1.7139989137649536e-01 2.4567483365535736e-01</leafValues></_>
        <_>
          <internalNodes>
            0 -1 76 -7.5055900961160660e-03</internalNodes>
          <leafValues>
            -1.2653100490570068e+00 4.6556223183870316e-02</leafValues></_>
        <_>
          <internalNodes>
            0 -1 264 3.9370357990264893e-03</internalNodes>
          <leafValues>
            -1.4259880781173706e-01 3.2965219020843506e-01</leafValues></_>
        <_>
          <internalNodes>
            0 -1 297 -9.0497848577797413e-04</internalNodes>
          <leafValues>
            3.3453908562660217e-01 -1.2594069540500641e-01</leafValues></_>
        <_>
          <internalNodes>
            0 -1 514 2.7266149409115314e-03</internalNodes>
          <leafValues>
            1.1329782009124756e-01 -3.6105039715766907e-01</leafValues></_>
        <_>
          <internalNodes>
            0 -1 375 -3.8962822873145342e-03</internalNodes>
          <leafValues>
            3.0360737442970276e-01 -1.2979865074157715e-01</leafValues></_>
        <_>
          <internalNodes>
            0 -1 421 -1.5229432610794902e-03</internalNodes>
          <leafValues>
            -2.6327767968177795e-01 1.7605842649936676e-01</leafValues></_>
        <_>
          <internalNodes>
            0 -1 215 9.1348737478256226e-02</internalNodes>
          <leafValues>
            6.1117548495531082e-02 -7.9605215787887573e-01</leafValues></_>
        <_>
          <internalNodes>
            0 -1 121 -2.1391302347183228e-02</internalNodes>
          <leafValues>
            -4.4821977615356445e-01 1.0882552713155746e-01</leafValues></_>
        <_>
          <internalNodes>
            0 -1 87 1.1993716470897198e-03</internalNodes>
          <leafValues>
            -1.5035745501518250e-01 2.8524854779243469e-01</leafValues></_>
        <_>
          <internalNodes>
            0 -1 332 2.6615078095346689e-03</internalNodes>
          <leafValues>
            8.4711454808712006e-02 -5.2632796764373779e-01</leafValues></_>
        <_>
          <internalNodes>
            0 -1 490 -3.3720801584422588e-03</internalNodes>
          <leafValues>
            5.8106845617294312e-01 -8.9254528284072876e-02</leafValues></_>
        <_>
          <internalNodes>
            0 -1 519 2.0712863653898239e-02</internalNodes>
          <leafValues>
            7.2614498436450958e-02 -6.4092820882797241e-01</leafValues></_>
        <_>
          <internalNodes>
            0 -1 497 -8.6378894047811627e-04</internalNodes>
          <leafValues>
            3.6624354124069214e-01 -1.1242272704839706e-01</leafValues></_>
        <_>
          <internalNodes>
            0 -1 66 1.4486458152532578e-02</internalNodes>
          <leafValues>
            6.6984713077545166e-02 -7.3787975311279297e-01</leafValues></_>
        <_>
          <internalNodes>
            0 -1 481 2.2219285368919373e-02</internalNodes>
          <leafValues>
            9.6840828657150269e-02 -4.7820261120796204e-01</leafValues></_>
        <_>
          <internalNodes>
            0 -1 456 -2.2717136889696121e-03</internalNodes>
          <leafValues>
            -8.6027163267135620e-01 5.5976193398237228e-02</leafValues></_>
        <_>
          <internalNodes>
            0 -1 503 2.1305166184902191e-02</internalNodes>
          <leafValues>
            -9.4051979482173920e-02 4.7969403862953186e-01</leafValues></_>
        <_>
          <internalNodes>
            0 -1 74 -6.2824860215187073e-02</internalNodes>
          <leafValues>
            -9.0667754411697388e-02 5.3224420547485352e-01</leafValues></_>
        <_>
          <internalNodes>
            0 -1 356 -1.5821254253387451e-01</internalNodes>
          <leafValues>
            -6.9174301624298096e-01 6.6856935620307922e-02</leafValues></_>
        <_>
          <internalNodes>
            0 -1 486 1.4811488799750805e-02</internalNodes>
          <leafValues>
            -1.1533378809690475e-01 3.7760505080223083e-01</leafValues></_>
        <_>
          <internalNodes>
            0 -1 117 2.3686697240918875e-03</internalNodes>
          <leafValues>
            -1.1272479593753815e-01 4.0873476862907410e-01</leafValues></_>
        <_>
          <internalNodes>
            0 -1 557 1.3412628322839737e-03</internalNodes>
          <leafValues>
            -1.0484862327575684e-01 4.6050783991813660e-01</leafValues></_>
        <_>
          <internalNodes>
            0 -1 285 -1.4455128461122513e-02</internalNodes>
          <leafValues>
            -4.4093382358551025e-01 9.9979214370250702e-02</leafValues></_>
        <_>
          <internalNodes>
            0 -1 31 2.7361323591321707e-03</internalNodes>
          <leafValues>
            -9.9615737795829773e-02 4.7654601931571960e-01</leafValues></_>
        <_>
          <internalNodes>
            0 -1 623 4.8242770135402679e-03</internalNodes>
          <leafValues>
            8.5234127938747406e-02 -5.7206010818481445e-01</leafValues></_>
        <_>
          <internalNodes>
            0 -1 225 4.5196874998509884e-04</internalNodes>
          <leafValues>
            1.1922527849674225e-01 -3.7204971909523010e-01</leafValues></_>
        <_>
          <internalNodes>
            0 -1 126 7.1802258491516113e-02</internalNodes>
          <leafValues>
            1.0008340328931808e-01 -6.3324308395385742e-01</leafValues></_>
        <_>
          <internalNodes>
            0 -1 94 1.4579443261027336e-02</internalNodes>
          <leafValues>
            -9.3799188733100891e-02 5.1433962583541870e-01</leafValues></_>
        <_>
          <internalNodes>
            0 -1 470 -1.3999815285205841e-01</internalNodes>
          <leafValues>
            8.7719160318374634e-01 -6.4123190939426422e-02</leafValues></_>
        <_>
          <internalNodes>
            0 -1 189 6.5783813595771790e-02</internalNodes>
          <leafValues>
            -1.5439982712268829e-01 2.9635986685752869e-01</leafValues></_>
        <_>
          <internalNodes>
            0 -1 430 -1.0516921058297157e-02</internalNodes>
          <leafValues>
            4.7058603167533875e-01 -1.1202412843704224e-01</leafValues></_></weakClassifiers></_>
    <!-- stage 4 -->
    <_>
      <maxWeakCount>51</maxWeakCount>
      <stageThreshold>-8.2355755567550659e-01</stageThreshold>
      <weakClassifiers>
        <_>
          <internalNodes>
            0 -1 90 2.5413495302200317e-01</internalNodes>
          <leafValues>
            -2.6076865196228027e-01 -1.7675726413726807e+00</leafValues></_>
        <_>
          <internalNodes>
            0 -1 324 3.3546378836035728e-03</internalNodes>
          <leafValues>
            1.3208992779254913e-01 -6.8364673852920532e-01</leafValues></_>
        <_>
          <internalNodes>
            0 -1 101 4.9594290554523468e-02</internalNodes>
          <leafValues>
            1.1032471060752869e-01 -1.4329003095626831e+00</leafValues></_>
        <_>
          <internalNodes>
            0 -1 242 1.6740137711167336e-02</internalNodes>
          <leafValues>
            1.4531256258487701e-01 -5.3502279520034790e-01</leafValues></_>
        <_>
          <internalNodes>
            0 -1 473 5.9371041133999825e-03</internalNodes>
          <leafValues>
            -2.3858696222305298e-01 2.5814020633697510e-01</leafValues></_>
        <_>
          <internalNodes>
            0 -1 349 5.9270979836583138e-03</internalNodes>
          <leafValues>
            -1.0690347850322723e-01 5.8347880840301514e-01</leafValues></_>
        <_>
          <internalNodes>
            0 -1 465 -3.5202812869101763e-03</internalNodes>
          <leafValues>
            4.9479687213897705e-01 -1.2772959470748901e-01</leafValues></_>
        <_>
          <internalNodes>
            0 -1 84 5.3029754199087620e-03</internalNodes>
          <leafValues>
            -1.9068650901317596e-01 3.1338185071945190e-01</leafValues></_>
        <_>
          <internalNodes>
            0 -1 427 7.1248244494199753e-03</internalNodes>
          <leafValues>
            1.0469242930412292e-01 -5.1024597883224487e-01</leafValues></_>
        <_>
          <internalNodes>
            0 -1 629 -8.9813343947753310e-05</internalNodes>
          <leafValues>
            -2.5790503621101379e-01 1.7162485420703888e-01</leafValues></_>
        <_>
          <internalNodes>
            0 -1 426 -3.2987713813781738e-02</internalNodes>
          <leafValues>
            -4.8115903139114380e-01 1.0051529854536057e-01</leafValues></_>
        <_>
          <internalNodes>
            0 -1 327 -2.0190165378153324e-03</internalNodes>
          <leafValues>
            3.9763557910919189e-01 -1.3377267122268677e-01</leafValues></_>
        <_>
          <internalNodes>
            0 -1 579 -2.0113443024456501e-03</internalNodes>
          <leafValues>
            2.6040136814117432e-01 -1.7815852165222168e-01</leafValues></_>
        <_>
          <internalNodes>
            0 -1 553 4.6382457017898560e-02</internalNodes>
          <leafValues>
            -7.2056815028190613e-02 8.8122910261154175e-01</leafValues></_>
        <_>
          <internalNodes>
            0 -1 190 -1.3630697503685951e-02</internalNodes>
          <leafValues>
            -4.4266837835311890e-01 1.2244069576263428e-01</leafValues></_>
        <_>
          <internalNodes>
            0 -1 305 -1.3211730401962996e-04</internalNodes>
          <leafValues>
            -2.3882581293582916e-01 2.4130029976367950e-01</leafValues></_>
        <_>
          <internalNodes>
            0 -1 315 1.5404350124299526e-03</internalNodes>
          <leafValues>
            -2.8353786468505859e-01 1.7276521027088165e-01</leafValues></_>
        <_>
          <internalNodes>
            0 -1 326 9.5947515219449997e-03</internalNodes>
          <leafValues>
            -7.7284991741180420e-02 8.1271535158157349e-01</leafValues></_>
        <_>
          <internalNodes>
            0 -1 600 2.4252720177173615e-03</internalNodes>
          <leafValues>
            -1.5126870572566986e-01 3.3033955097198486e-01</leafValues></_>
        <_>
          <internalNodes>
            0 -1 77 7.6399552635848522e-03</internalNodes>
          <leafValues>
            7.5550422072410583e-02 -6.6465097665786743e-01</leafValues></_>
        <_>
          <internalNodes>
            0 -1 3 1.0579593479633331e-02</internalNodes>
          <leafValues>
            -1.3082365691661835e-01 3.6915713548660278e-01</leafValues></_>
        <_>
          <internalNodes>
            0 -1 397 7.3784543201327324e-03</internalNodes>
          <leafValues>
            6.1256144195795059e-02 -1.1067239046096802e+00</leafValues></_>
        <_>
          <internalNodes>
            0 -1 275 -2.7379620820283890e-02</internalNodes>
          <leafValues>
            -1.0452761650085449e+00 6.0357224196195602e-02</leafValues></_>
        <_>
          <internalNodes>
            0 -1 387 -4.5420683454722166e-04</internalNodes>
          <leafValues>
            2.7476871013641357e-01 -1.7605014145374298e-01</leafValues></_>
        <_>
          <internalNodes>
            0 -1 434 -1.2076089624315500e-03</internalNodes>
          <leafValues>
            2.7081331610679626e-01 -1.7911413311958313e-01</leafValues></_>
        <_>
          <internalNodes>
            0 -1 499 -4.6833674423396587e-04</internalNodes>
          <leafValues>
            -2.7410814166069031e-01 1.9770285487174988e-01</leafValues></_>
        <_>
          <internalNodes>
            0 -1 455 7.8237373381853104e-03</internalNodes>
          <leafValues>
            -5.3760923445224762e-02 1.3667206764221191e+00</leafValues></_>
        <_>
          <internalNodes>
            0 -1 513 2.7320855297148228e-03</internalNodes>
          <leafValues>
            1.0597866028547287e-01 -4.5710477232933044e-01</leafValues></_>
        <_>
          <internalNodes>
            0 -1 582 -1.7094146460294724e-03</internalNodes>
          <leafValues>
            3.7439408898353577e-01 -1.5710453689098358e-01</leafValues></_>
        <_>
          <internalNodes>
            0 -1 518 1.6777571290731430e-02</internalNodes>
          <leafValues>
            6.0538616031408310e-02 -9.4782251119613647e-01</leafValues></_>
        <_>
          <internalNodes>
            0 -1 67 1.2163402512669563e-02</internalNodes>
          <leafValues>
            9.1551341116428375e-02 -5.9368103742599487e-01</leafValues></_>
        <_>
          <internalNodes>
            0 -1 125 4.3123983778059483e-03</internalNodes>
          <leafValues>
            1.8946388363838196e-01 -2.3681944608688354e-01</leafValues></_>
        <_>
          <internalNodes>
            0 -1 81 1.8666223622858524e-03</internalNodes>
          <leafValues>
            -2.3439469933509827e-01 1.9824098050594330e-01</leafValues></_>
        <_>
          <internalNodes>
            0 -1 370 -2.8533837758004665e-03</internalNodes>
          <leafValues>
            4.1816914081573486e-01 -1.2294033914804459e-01</leafValues></_>
        <_>
          <internalNodes>
            0 -1 313 1.1213587131351233e-03</internalNodes>
          <leafValues>
            -1.8119262158870697e-01 2.8608947992324829e-01</leafValues></_>
        <_>
          <internalNodes>
            0 -1 220 1.0477653704583645e-02</internalNodes>
          <leafValues>
            7.9991534352302551e-02 -6.7326194047927856e-01</leafValues></_>
        <_>
          <internalNodes>
            0 -1 156 7.1893567219376564e-03</internalNodes>
          <leafValues>
            -7.6839901506900787e-02 6.2096589803695679e-01</leafValues></_>
        <_>
          <internalNodes>
            0 -1 257 2.1671600639820099e-02</internalNodes>
          <leafValues>
            5.3279671818017960e-02 -1.1931402683258057e+00</leafValues></_>
        <_>
          <internalNodes>
            0 -1 381 -7.9122304916381836e-02</internalNodes>
          <leafValues>
            9.7805583477020264e-01 -7.3103778064250946e-02</leafValues></_>
        <_>
          <internalNodes>
            0 -1 459 -2.3359391838312149e-02</internalNodes>
          <leafValues>
            -4.5074778795242310e-01 1.3735620677471161e-01</leafValues></_>
        <_>
          <internalNodes>
            0 -1 418 2.0405033137649298e-03</internalNodes>
          <leafValues>
            -9.8043046891689301e-02 5.6703728437423706e-01</leafValues></_>
        <_>
          <internalNodes>
            0 -1 336 -1.8549163360148668e-03</internalNodes>
          <leafValues>
            -5.3083336353302002e-01 9.0628772974014282e-02</leafValues></_>
        <_>
          <internalNodes>
            0 -1 516 -2.6640326250344515e-03</internalNodes>
          <leafValues>
            4.9930834770202637e-01 -1.0399563610553741e-01</leafValues></_>
        <_>
          <internalNodes>
            0 -1 445 7.6119834557175636e-04</internalNodes>
          <leafValues>
            1.1812305450439453e-01 -3.9977952837944031e-01</leafValues></_>
        <_>
          <internalNodes>
            0 -1 466 3.4989805426448584e-03</internalNodes>
          <leafValues>
            -1.1767964065074921e-01 3.9944657683372498e-01</leafValues></_>
        <_>
          <internalNodes>
            0 -1 14 -5.3673520684242249e-02</internalNodes>
          <leafValues>
            -6.5393525362014771e-01 8.2527607679367065e-02</leafValues></_>
        <_>
          <internalNodes>
            0 -1 562 -2.0923795178532600e-02</internalNodes>
          <leafValues>
            -2.8502875566482544e-01 1.6582314670085907e-01</leafValues></_>
        <_>
          <internalNodes>
            0 -1 209 3.4516830928623676e-03</internalNodes>
          <leafValues>
            -1.5891547501087189e-01 3.1973284482955933e-01</leafValues></_>
        <_>
          <internalNodes>
            0 -1 209 -1.0631507262587547e-02</internalNodes>
          <leafValues>
            5.3921031951904297e-01 -1.0465254634618759e-01</leafValues></_>
        <_>
          <internalNodes>
            0 -1 255 3.6974310874938965e-02</internalNodes>
          <leafValues>
            1.0923126339912415e-01 -4.5304116606712341e-01</leafValues></_>
        <_>
          <internalNodes>
            0 -1 436 1.2317106127738953e-02</internalNodes>
          <leafValues>
            5.8540094643831253e-02 -1.1747938394546509e+00</leafValues></_></weakClassifiers></_>
    <!-- stage 5 -->
    <_>
      <maxWeakCount>62</maxWeakCount>
      <stageThreshold>-8.4231209754943848e-01</stageThreshold>
      <weakClassifiers>
        <_>
          <internalNodes>
            0 -1 75 -1.4801107347011566e-02</internalNodes>
          <leafValues>
            -5.4983496665954590e-01 2.2683361172676086e-01</leafValues></_>
        <_>
          <internalNodes>
            0 -1 300 4.0131531655788422e-02</internalNodes>
          <leafValues>
            1.4307090640068054e-01 -4.2093822360038757e-01</leafValues></_>
        <_>
          <internalNodes>
            0 -1 44 1.1804294772446156e-02</internalNodes>
          <leafValues>
            -9.3611091375350952e-02 5.8989197015762329e-01</leafValues></_>
        <_>
          <internalNodes>
            0 -1 453 1.2659134343266487e-02</internalNodes>
          <leafValues>
            7.7143728733062744e-02 -7.6039749383926392e-01</leafValues></_>
        <_>
          <internalNodes>
            0 -1 164 -2.9912067111581564e-03</internalNodes>
          <leafValues>
            4.4054484367370605e-01 -9.0015470981597900e-02</leafValues></_>
        <_>
          <internalNodes>
            0 -1 621 -2.1406500600278378e-03</internalNodes>
          <leafValues>
            5.5802208185195923e-01 -9.8730437457561493e-02</leafValues></_>
        <_>
          <internalNodes>
            0 -1 494 -3.9343256503343582e-03</internalNodes>
          <leafValues>
            5.4543006420135498e-01 -8.2062982022762299e-02</leafValues></_>
        <_>
          <internalNodes>
            0 -1 493 4.6184826642274857e-03</internalNodes>
          <leafValues>
            9.7323939204216003e-02 -4.0104478597640991e-01</leafValues></_>
        <_>
          <internalNodes>
            0 -1 334 -6.1458237469196320e-02</internalNodes>
          <leafValues>
            -2.6012766361236572e-01 1.6794250905513763e-01</leafValues></_>
        <_>
          <internalNodes>
            0 -1 618 1.4411675743758678e-02</internalNodes>
          <leafValues>
            -5.6151945143938065e-02 7.5573712587356567e-01</leafValues></_>
        <_>
          <internalNodes>
            0 -1 444 7.8964561223983765e-02</internalNodes>
          <leafValues>
            -7.5375363230705261e-02 6.3683348894119263e-01</leafValues></_>
        <_>
          <internalNodes>
            0 -1 510 -8.9912051334977150e-03</internalNodes>
          <leafValues>
            -4.1558766365051270e-01 9.9459782242774963e-02</leafValues></_>
        <_>
          <internalNodes>
            0 -1 439 2.1495651453733444e-02</internalNodes>
          <leafValues>
            1.0937839001417160e-01 -3.7789562344551086e-01</leafValues></_>
        <_>
          <internalNodes>
            0 -1 274 -3.5318278241902590e-03</internalNodes>
          <leafValues>
            -3.9452394843101501e-01 1.1390336602926254e-01</leafValues></_>
        <_>
          <internalNodes>
            0 -1 32 7.4038850143551826e-03</internalNodes>
          <leafValues>
            -9.3431085348129272e-02 4.6226707100868225e-01</leafValues></_>
        <_>
          <internalNodes>
            0 -1 435 5.4790256544947624e-03</internalNodes>
          <leafValues>
            -6.7523449659347534e-02 7.4889039993286133e-01</leafValues></_>
        <_>
          <internalNodes>
            0 -1 118 8.2191275432705879e-03</internalNodes>
          <leafValues>
            -1.8241131305694580e-01 2.3347325623035431e-01</leafValues></_>
        <_>
          <internalNodes>
            0 -1 627 4.8616714775562286e-03</internalNodes>
          <leafValues>
            1.5409593284130096e-01 -2.6711809635162354e-01</leafValues></_>
        <_>
          <internalNodes>
            0 -1 365 -1.1836683843284845e-03</internalNodes>
          <leafValues>
            2.7467826008796692e-01 -1.4299470186233521e-01</leafValues></_>
        <_>
          <internalNodes>
            0 -1 56 2.0292119588702917e-03</internalNodes>
          <leafValues>
            7.2177030146121979e-02 -5.7486516237258911e-01</leafValues></_>
        <_>
          <internalNodes>
            0 -1 618 -6.6587449982762337e-03</internalNodes>
          <leafValues>
            4.6025508642196655e-01 -8.9110553264617920e-02</leafValues></_>
        <_>
          <internalNodes>
            0 -1 211 -2.5777319073677063e-01</internalNodes>
          <leafValues>
            -1.3631225824356079e+00 4.5503366738557816e-02</leafValues></_>
        <_>
          <internalNodes>
            0 -1 363 9.8190292192157358e-05</internalNodes>
          <leafValues>
            2.2905360162258148e-01 -1.8358999490737915e-01</leafValues></_>
        <_>
          <internalNodes>
            0 -1 111 -1.1338450014591217e-02</internalNodes>
          <leafValues>
            -9.2110311985015869e-01 4.8294972628355026e-02</leafValues></_>
        <_>
          <internalNodes>
            0 -1 266 -3.1793839298188686e-03</internalNodes>
          <leafValues>
            4.2618829011917114e-01 -9.8221227526664734e-02</leafValues></_>
        <_>
          <internalNodes>
            0 -1 243 -1.2861874420195818e-03</internalNodes>
          <leafValues>
            -2.1099486947059631e-01 1.9408042728900909e-01</leafValues></_>
        <_>
          <internalNodes>
            0 -1 25 5.4478055238723755e-01</internalNodes>
          <leafValues>
            -6.3818454742431641e-02 7.8823947906494141e-01</leafValues></_>
        <_>
          <internalNodes>
            0 -1 289 -3.5488691646605730e-03</internalNodes>
          <leafValues>
            2.5259345769882202e-01 -1.6318458318710327e-01</leafValues></_>
        <_>
          <internalNodes>
            0 -1 602 1.3455342501401901e-02</internalNodes>
          <leafValues>
            -7.7384136617183685e-02 5.7740402221679688e-01</leafValues></_>
        <_>
          <internalNodes>
            0 -1 474 1.2939637526869774e-02</internalNodes>
          <leafValues>
            4.4575694948434830e-02 -1.2147696018218994e+00</leafValues></_>
        <_>
          <internalNodes>
            0 -1 132 -4.7320820391178131e-02</internalNodes>
          <leafValues>
            -4.4884717464447021e-01 1.0424455255270004e-01</leafValues></_>
        <_>
          <internalNodes>
            0 -1 197 2.8509110212326050e-02</internalNodes>
          <leafValues>
            -1.0202203691005707e-01 4.3431851267814636e-01</leafValues></_>
        <_>
          <internalNodes>
            0 -1 403 -6.4880900084972382e-02</internalNodes>
          <leafValues>
            4.3692056089639664e-02 -1.2009786367416382e+00</leafValues></_>
        <_>
          <internalNodes>
            0 -1 306 9.0127214789390564e-03</internalNodes>
          <leafValues>
            -1.3319352269172668e-01 3.1867539882659912e-01</leafValues></_>
        <_>
          <internalNodes>
            0 -1 69 -8.3651952445507050e-03</internalNodes>
          <leafValues>
            -6.0614287853240967e-01 7.7721767127513885e-02</leafValues></_>
        <_>
          <internalNodes>
            0 -1 43 -5.2165929228067398e-03</internalNodes>
          <leafValues>
            -2.5016596913337708e-01 1.6106516122817993e-01</leafValues></_>
        <_>
          <internalNodes>
            0 -1 335 9.7019430249929428e-03</internalNodes>
          <leafValues>
            1.0564328730106354e-01 -4.0646424889564514e-01</leafValues></_>
        <_>
          <internalNodes>
            0 -1 333 -1.9024848937988281e-02</internalNodes>
          <leafValues>
            5.1645982265472412e-01 -9.4690263271331787e-02</leafValues></_>
        <_>
          <internalNodes>
            0 -1 425 5.6237429380416870e-03</internalNodes>
          <leafValues>
            -9.8715133965015411e-02 4.4855651259422302e-01</leafValues></_>
        <_>
          <internalNodes>
            0 -1 193 -3.2872790470719337e-03</internalNodes>
          <leafValues>
            -4.7002354264259338e-01 8.5146531462669373e-02</leafValues></_>
        <_>
          <internalNodes>
            0 -1 353 1.4019936788827181e-03</internalNodes>
          <leafValues>
            4.5953407883644104e-02 -1.0970914363861084e+00</leafValues></_>
        <_>
          <internalNodes>
            0 -1 362 -2.9845509678125381e-02</internalNodes>
          <leafValues>
            9.5145577192306519e-01 -5.3809322416782379e-02</leafValues></_>
        <_>
          <internalNodes>
            0 -1 286 5.5424296297132969e-03</internalNodes>
          <leafValues>
            1.3813266158103943e-01 -2.8993791341781616e-01</leafValues></_>
        <_>
          <internalNodes>
            0 -1 340 5.5084563791751862e-04</internalNodes>
          <leafValues>
            -1.3354596495628357e-01 3.5622474551200867e-01</leafValues></_>
        <_>
          <internalNodes>
            0 -1 484 -2.9280796647071838e-02</internalNodes>
          <leafValues>
            -4.7079896926879883e-01 1.0169978439807892e-01</leafValues></_>
        <_>
          <internalNodes>
            0 -1 119 -1.0991351446136832e-03</internalNodes>
          <leafValues>
            -3.3148828148841858e-01 1.2922897934913635e-01</leafValues></_>
        <_>
          <internalNodes>
            0 -1 1 -5.5322898551821709e-03</internalNodes>
          <leafValues>
            9.4634532928466797e-01 -5.9269428253173828e-02</leafValues></_>
        <_>
          <internalNodes>
            0 -1 329 6.7594051361083984e-03</internalNodes>
          <leafValues>
            -9.7483180463314056e-02 4.5763072371482849e-01</leafValues></_>
        <_>
          <internalNodes>
            0 -1 348 -1.1846898123621941e-03</internalNodes>
          <leafValues>
            3.1551739573478699e-01 -1.5211978554725647e-01</leafValues></_>
        <_>
          <internalNodes>
            0 -1 458 -3.5588204860687256e-02</internalNodes>
          <leafValues>
            -1.7705806493759155e+00 5.0951339304447174e-02</leafValues></_>
        <_>
          <internalNodes>
            0 -1 625 8.6908666417002678e-03</internalNodes>
          <leafValues>
            -6.7075118422508240e-02 8.4364986419677734e-01</leafValues></_>
        <_>
          <internalNodes>
            0 -1 171 -2.0460419356822968e-02</internalNodes>
          <leafValues>
            -1.0805121809244156e-01 4.0004751086235046e-01</leafValues></_>
        <_>
          <internalNodes>
            0 -1 539 -6.5032218117266893e-04</internalNodes>
          <leafValues>
            3.4685045480728149e-01 -1.2806938588619232e-01</leafValues></_>
        <_>
          <internalNodes>
            0 -1 561 4.7915335744619370e-03</internalNodes>
          <leafValues>
            -1.2261278182268143e-01 3.7851929664611816e-01</leafValues></_>
        <_>
          <internalNodes>
            0 -1 449 2.8389354702085257e-03</internalNodes>
          <leafValues>
            5.6492187082767487e-02 -1.0398366451263428e+00</leafValues></_>
        <_>
          <internalNodes>
            0 -1 359 1.6239453107118607e-03</internalNodes>
          <leafValues>
            2.3756378889083862e-01 -1.8304435908794403e-01</leafValues></_>
        <_>
          <internalNodes>
            0 -1 437 2.9029338620603085e-03</internalNodes>
          <leafValues>
            -7.8164905309677124e-02 6.3074654340744019e-01</leafValues></_>
        <_>
          <internalNodes>
            0 -1 232 -1.6139246872626245e-04</internalNodes>
          <leafValues>
            -2.5427275896072388e-01 1.6900865733623505e-01</leafValues></_>
        <_>
          <internalNodes>
            0 -1 462 -2.4255007505416870e-01</internalNodes>
          <leafValues>
            -6.1614942550659180e-01 6.6098310053348541e-02</leafValues></_>
        <_>
          <internalNodes>
            0 -1 443 1.4303154312074184e-03</internalNodes>
          <leafValues>
            -2.6169607043266296e-01 1.6196443140506744e-01</leafValues></_>
        <_>
          <internalNodes>
            0 -1 219 -2.0273139234632254e-03</internalNodes>
          <leafValues>
            3.3697992563247681e-01 -1.2809149920940399e-01</leafValues></_>
        <_>
          <internalNodes>
            0 -1 6 1.0357604362070560e-02</internalNodes>
          <leafValues>
            -1.2012189626693726e-01 3.8075214624404907e-01</leafValues></_></weakClassifiers></_>
    <!-- stage 6 -->
    <_>
      <maxWeakCount>73</maxWeakCount>
      <stageThreshold>-8.5181325674057007e-01</stageThreshold>
      <weakClassifiers>
        <_>
          <internalNodes>
            0 -1 460 1.0480845347046852e-02</internalNodes>
          <leafValues>
            -6.0568445920944214e-01 -1.5037707984447479e-01</leafValues></_>
        <_>
          <internalNodes>
            0 -1 544 -1.1670603416860104e-02</internalNodes>
          <leafValues>
            -3.0313539505004883e-01 1.4377465844154358e-01</leafValues></_>
        <_>
          <internalNodes>
            0 -1 23 1.6570921987295151e-02</internalNodes>
          <leafValues>
            -2.6083371043205261e-01 1.6996926069259644e-01</leafValues></_>
        <_>
          <internalNodes>
            0 -1 35 4.2519658803939819e-02</internalNodes>
          <leafValues>
            9.7733326256275177e-02 -7.1823763847351074e-01</leafValues></_>
        <_>
          <internalNodes>
            0 -1 237 -2.9555354267358780e-03</internalNodes>
          <leafValues>
            6.5671533346176147e-01 -8.9744426310062408e-02</leafValues></_>
        <_>
          <internalNodes>
            0 -1 412 1.1194635182619095e-02</internalNodes>
          <leafValues>
            -1.9882297515869141e-01 2.3575235903263092e-01</leafValues></_>
        <_>
          <internalNodes>
            0 -1 485 -9.2883288860321045e-02</internalNodes>
          <leafValues>
            -5.1084542274475098e-01 6.8168655037879944e-02</leafValues></_>
        <_>
          <internalNodes>
            0 -1 572 1.3177352957427502e-03</internalNodes>
          <leafValues>
            -1.4183650910854340e-01 2.5468385219573975e-01</leafValues></_>
        <_>
          <internalNodes>
            0 -1 528 -8.0588934943079948e-03</internalNodes>
          <leafValues>
            7.5560730695724487e-01 -4.7365989536046982e-02</leafValues></_>
        <_>
          <internalNodes>
            0 -1 115 2.5011268444359303e-03</internalNodes>
          <leafValues>
            -1.9127240777015686e-01 1.8468409776687622e-01</leafValues></_>
        <_>
          <internalNodes>
            0 -1 128 1.8781475955620408e-04</internalNodes>
          <leafValues>
            1.1256920546293259e-01 -2.9403066635131836e-01</leafValues></_>
        <_>
          <internalNodes>
            0 -1 112 1.8981028348207474e-02</internalNodes>
          <leafValues>
            4.8311397433280945e-02 -8.7067615985870361e-01</leafValues></_>
        <_>
          <internalNodes>
            0 -1 530 -7.9931169748306274e-03</internalNodes>
          <leafValues>
            4.7681126743555069e-02 -8.3801662921905518e-01</leafValues></_>
        <_>
          <internalNodes>
            0 -1 342 3.1997126061469316e-03</internalNodes>
          <leafValues>
            1.0625620931386948e-01 -3.1687828898429871e-01</leafValues></_>
        <_>
          <internalNodes>
            0 -1 477 1.7011909221764654e-04</internalNodes>
          <leafValues>
            2.0311073958873749e-01 -1.7988230288028717e-01</leafValues></_>
        <_>
          <internalNodes>
            0 -1 373 2.0836575422435999e-03</internalNodes>
          <leafValues>
            -1.1285239458084106e-01 3.2078346610069275e-01</leafValues></_>
        <_>
          <internalNodes>
            0 -1 250 -1.0285824537277222e-03</internalNodes>
          <leafValues>
            -3.2100066542625427e-01 1.1445228755474091e-01</leafValues></_>
        <_>
          <internalNodes>
            0 -1 560 -1.4789424836635590e-02</internalNodes>
          <leafValues>
            -1.9587062299251556e-01 2.0114143192768097e-01</leafValues></_>
        <_>
          <internalNodes>
            0 -1 520 4.2686201632022858e-03</internalNodes>
          <leafValues>
            9.4011217355728149e-02 -3.9330142736434937e-01</leafValues></_>
        <_>
          <internalNodes>
            0 -1 341 3.5048697609454393e-03</internalNodes>
          <leafValues>
            -5.5284325033426285e-02 9.2215436697006226e-01</leafValues></_>
        <_>
          <internalNodes>
            0 -1 13 -2.6349671185016632e-02</internalNodes>
          <leafValues>
            -1.1349744796752930e+00 3.8489378988742828e-02</leafValues></_>
        <_>
          <internalNodes>
            0 -1 295 1.6232758760452271e-01</internalNodes>
          <leafValues>
            -5.9804625809192657e-02 7.2416973114013672e-01</leafValues></_>
        <_>
          <internalNodes>
            0 -1 479 1.4386162161827087e-02</internalNodes>
          <leafValues>
            -6.5935283899307251e-02 8.6987841129302979e-01</leafValues></_>
        <_>
          <internalNodes>
            0 -1 482 -1.4495451934635639e-02</internalNodes>
          <leafValues>
            -3.9044123888015747e-01 9.6697986125946045e-02</leafValues></_>
        <_>
          <internalNodes>
            0 -1 351 -3.4931693226099014e-03</internalNodes>
          <leafValues>
            2.2817769646644592e-01 -1.5551438927650452e-01</leafValues></_>
        <_>
          <internalNodes>
            0 -1 496 -1.7298996448516846e-02</internalNodes>
          <leafValues>
            1.6762673854827881e-01 -2.1354617178440094e-01</leafValues></_>
        <_>
          <internalNodes>
            0 -1 187 1.3304555416107178e-01</internalNodes>
          <leafValues>
            -1.0155790299177170e-01 5.1463395357131958e-01</leafValues></_>
        <_>
          <internalNodes>
            0 -1 98 2.8722601011395454e-02</internalNodes>
          <leafValues>
            -6.1063181608915329e-02 7.9960733652114868e-01</leafValues></_>
        <_>
          <internalNodes>
            0 -1 378 3.2397720962762833e-02</internalNodes>
          <leafValues>
            7.5827434659004211e-02 -5.6525874137878418e-01</leafValues></_>
        <_>
          <internalNodes>
            0 -1 317 2.1769095212221146e-02</internalNodes>
          <leafValues>
            7.3014177381992340e-02 -5.3643155097961426e-01</leafValues></_>
        <_>
          <internalNodes>
            0 -1 476 8.2869511097669601e-03</internalNodes>
          <leafValues>
            -6.0358311980962753e-02 6.8159377574920654e-01</leafValues></_>
        <_>
          <internalNodes>
            0 -1 41 1.3330675661563873e-02</internalNodes>
          <leafValues>
            -6.3316188752651215e-02 6.3819158077239990e-01</leafValues></_>
        <_>
          <internalNodes>
            0 -1 619 3.0380424577742815e-03</internalNodes>
          <leafValues>
            7.7057510614395142e-02 -5.7289892435073853e-01</leafValues></_>
        <_>
          <internalNodes>
            0 -1 410 -5.0521191209554672e-02</internalNodes>
          <leafValues>
            -6.6141951084136963e-01 5.9295285493135452e-02</leafValues></_>
        <_>
          <internalNodes>
            0 -1 145 -1.1263918876647949e-01</internalNodes>
          <leafValues>
            2.5465127825737000e-01 -1.4973330497741699e-01</leafValues></_>
        <_>
          <internalNodes>
            0 -1 552 -1.5715076006017625e-04</internalNodes>
          <leafValues>
            1.9992920756340027e-01 -1.6739247739315033e-01</leafValues></_>
        <_>
          <internalNodes>
            0 -1 355 5.0055049359798431e-03</internalNodes>
          <leafValues>
            -1.0296918451786041e-01 3.3824077248573303e-01</leafValues></_>
        <_>
          <internalNodes>
            0 -1 565 7.1241229306906462e-04</internalNodes>
          <leafValues>
            1.1354300379753113e-01 -3.3033272624015808e-01</leafValues></_>
        <_>
          <internalNodes>
            0 -1 136 -1.0849794489331543e-04</internalNodes>
          <leafValues>
            -2.1892698109149933e-01 1.5227739512920380e-01</leafValues></_>
        <_>
          <internalNodes>
            0 -1 114 2.9728328809142113e-04</internalNodes>
          <leafValues>
            9.7049653530120850e-02 -4.1348952054977417e-01</leafValues></_>
        <_>
          <internalNodes>
            0 -1 28 1.8830830231308937e-04</internalNodes>
          <leafValues>
            -1.9713141024112701e-01 1.7403247952461243e-01</leafValues></_>
        <_>
          <internalNodes>
            0 -1 491 6.5577654168009758e-03</internalNodes>
          <leafValues>
            9.6303239464759827e-02 -4.0043622255325317e-01</leafValues></_>
        <_>
          <internalNodes>
            0 -1 202 -3.6158640868961811e-03</internalNodes>
          <leafValues>
            3.9418786764144897e-01 -9.8124921321868896e-02</leafValues></_>
        <_>
          <internalNodes>
            0 -1 21 -1.7513421177864075e-01</internalNodes>
          <leafValues>
            -4.4984781742095947e-01 8.2712367177009583e-02</leafValues></_>
        <_>
          <internalNodes>
            0 -1 158 -1.1198588181287050e-03</internalNodes>
          <leafValues>
            2.6904132962226868e-01 -1.3581548631191254e-01</leafValues></_>
        <_>
          <internalNodes>
            0 -1 157 2.0269336528144777e-04</internalNodes>
          <leafValues>
            1.7164272069931030e-01 -2.0190390944480896e-01</leafValues></_>
        <_>
          <internalNodes>
            0 -1 253 -4.7726286575198174e-03</internalNodes>
          <leafValues>
            -3.1849718093872070e-01 1.0894722491502762e-01</leafValues></_>
        <_>
          <internalNodes>
            0 -1 95 1.9620297849178314e-01</internalNodes>
          <leafValues>
            -6.9303564727306366e-02 6.8058276176452637e-01</leafValues></_>
        <_>
          <internalNodes>
            0 -1 191 1.4665579423308372e-02</internalNodes>
          <leafValues>
            1.0361813008785248e-01 -3.8405191898345947e-01</leafValues></_>
        <_>
          <internalNodes>
            0 -1 68 2.3229289799928665e-03</internalNodes>
          <leafValues>
            -9.0044073760509491e-02 4.2676654458045959e-01</leafValues></_>
        <_>
          <internalNodes>
            0 -1 578 1.5161128714680672e-02</internalNodes>
          <leafValues>
            -1.0392918437719345e-01 3.5181632637977600e-01</leafValues></_>
        <_>
          <internalNodes>
            0 -1 154 -1.3528946787118912e-02</internalNodes>
          <leafValues>
            -5.9879618883132935e-01 6.2129255384206772e-02</leafValues></_>
        <_>
          <internalNodes>
            0 -1 107 2.2866621147841215e-03</internalNodes>
          <leafValues>
            -1.1576616019010544e-01 3.7424594163894653e-01</leafValues></_>
        <_>
          <internalNodes>
            0 -1 27 9.5838330686092377e-02</internalNodes>
          <leafValues>
            -1.2273935973644257e-01 3.5544788837432861e-01</leafValues></_>
        <_>
          <internalNodes>
            0 -1 231 2.1349569782614708e-02</internalNodes>
          <leafValues>
            1.0711900889873505e-01 -3.9967855811119080e-01</leafValues></_>
        <_>
          <internalNodes>
            0 -1 131 -1.1891173198819160e-02</internalNodes>
          <leafValues>
            5.1053154468536377e-01 -8.6667992174625397e-02</leafValues></_>
        <_>
          <internalNodes>
            0 -1 199 1.1134870350360870e-02</internalNodes>
          <leafValues>
            6.7907951772212982e-02 -5.4786145687103271e-01</leafValues></_>
        <_>
          <internalNodes>
            0 -1 9 -2.3474499583244324e-02</internalNodes>
          <leafValues>
            -8.9319002628326416e-01 4.9288429319858551e-02</leafValues></_>
        <_>
          <internalNodes>
            0 -1 144 3.3645540475845337e-02</internalNodes>
          <leafValues>
            -5.7064808905124664e-02 8.0906963348388672e-01</leafValues></_>
        <_>
          <internalNodes>
            0 -1 350 -1.1486837174743414e-03</internalNodes>
          <leafValues>
            -2.4047678709030151e-01 1.4980760216712952e-01</leafValues></_>
        <_>
          <internalNodes>
            0 -1 346 -2.6473963633179665e-02</internalNodes>
          <leafValues>
            5.3942865133285522e-01 -8.5615567862987518e-02</leafValues></_>
        <_>
          <internalNodes>
            0 -1 135 1.3298708945512772e-03</internalNodes>
          <leafValues>
            -1.5767563879489899e-01 2.4802172183990479e-01</leafValues></_>
        <_>
          <internalNodes>
            0 -1 383 7.8528769314289093e-02</internalNodes>
          <leafValues>
            3.5962164402008057e-02 -1.2703220844268799e+00</leafValues></_>
        <_>
          <internalNodes>
            0 -1 179 5.0563700497150421e-03</internalNodes>
          <leafValues>
            -1.6410486400127411e-01 2.2285231947898865e-01</leafValues></_>
        <_>
          <internalNodes>
            0 -1 85 1.4012346044182777e-02</internalNodes>
          <leafValues>
            8.2030646502971649e-02 -6.2065422534942627e-01</leafValues></_>
        <_>
          <internalNodes>
            0 -1 290 3.9103226736187935e-03</internalNodes>
          <leafValues>
            8.9684076607227325e-02 -4.3540149927139282e-01</leafValues></_>
        <_>
          <internalNodes>
            0 -1 206 1.2681046500802040e-02</internalNodes>
          <leafValues>
            -4.6009872108697891e-02 1.6807696819305420e+00</leafValues></_>
        <_>
          <internalNodes>
            0 -1 227 -2.3389754351228476e-03</internalNodes>
          <leafValues>
            -2.9573607444763184e-01 1.4054924249649048e-01</leafValues></_>
        <_>
          <internalNodes>
            0 -1 504 3.1820563599467278e-03</internalNodes>
          <leafValues>
            -9.5188744366168976e-02 4.3320843577384949e-01</leafValues></_>
        <_>
          <internalNodes>
            0 -1 366 -8.8416002690792084e-03</internalNodes>
          <leafValues>
            7.0730948448181152e-01 -6.4304336905479431e-02</leafValues></_>
        <_>
          <internalNodes>
            0 -1 423 1.4225663617253304e-02</internalNodes>
          <leafValues>
            3.3594720065593719e-02 -1.8892840147018433e+00</leafValues></_>
        <_>
          <internalNodes>
            0 -1 558 -1.3658331008628011e-03</internalNodes>
          <leafValues>
            -1.8619510531425476e-01 2.3079071938991547e-01</leafValues></_>
        <_>
          <internalNodes>
            0 -1 271 -1.1132877320051193e-02</internalNodes>
          <leafValues>
            -8.1891000270843506e-01 5.6059677153825760e-02</leafValues></_></weakClassifiers></_>
    <!-- stage 7 -->
    <_>
      <maxWeakCount>68</maxWeakCount>
      <stageThreshold>-8.7872779369354248e-01</stageThreshold>
      <weakClassifiers>
        <_>
          <internalNodes>
            0 -1 39 3.2385084778070450e-02</internalNodes>
          <leafValues>
            -2.4659515917301178e-01 -1.7482538223266602e+00</leafValues></_>
        <_>
          <internalNodes>
            0 -1 442 -2.2177018225193024e-02</internalNodes>
          <leafValues>
            -5.6206023693084717e-01 8.7639689445495605e-02</leafValues></_>
        <_>
          <internalNodes>
            0 -1 309 3.7018433213233948e-02</internalNodes>
          <leafValues>
            -4.5784212648868561e-02 1.0621408224105835e+00</leafValues></_>
        <_>
          <internalNodes>
            0 -1 361 3.1444035470485687e-02</internalNodes>
          <leafValues>
            2.4782164022326469e-02 -9.0413981676101685e-01</leafValues></_>
        <_>
          <internalNodes>
            0 -1 543 -3.0006351880729198e-03</internalNodes>
          <leafValues>
            2.3022373020648956e-01 -2.1926715970039368e-01</leafValues></_>
        <_>
          <internalNodes>
            0 -1 401 -3.0023798346519470e-02</internalNodes>
          <leafValues>
            6.2115269899368286e-01 -9.5047518610954285e-02</leafValues></_>
        <_>
          <internalNodes>
            0 -1 277 1.4370273798704147e-02</internalNodes>
          <leafValues>
            1.2524914741516113e-01 -3.0213096737861633e-01</leafValues></_>
        <_>
          <internalNodes>
            0 -1 414 5.8490695664659142e-04</internalNodes>
          <leafValues>
            1.1354556679725647e-01 -3.3767995238304138e-01</leafValues></_>
        <_>
          <internalNodes>
            0 -1 167 1.2315697036683559e-02</internalNodes>
          <leafValues>
            -1.0970703512430191e-01 3.7314572930335999e-01</leafValues></_>
        <_>
          <internalNodes>
            0 -1 100 -1.9265776500105858e-03</internalNodes>
          <leafValues>
            3.1539875268936157e-01 -1.2255389243364334e-01</leafValues></_>
        <_>
          <internalNodes>
            0 -1 585 -1.1769425123929977e-02</internalNodes>
          <leafValues>
            4.8947173357009888e-01 -7.9468414187431335e-02</leafValues></_>
        <_>
          <internalNodes>
            0 -1 241 4.5769852586090565e-03</internalNodes>
          <leafValues>
            8.5461080074310303e-02 -4.1122347116470337e-01</leafValues></_>
        <_>
          <internalNodes>
            0 -1 580 -3.8380669429898262e-03</internalNodes>
          <leafValues>
            3.1650611758232117e-01 -1.1903056502342224e-01</leafValues></_>
        <_>
          <internalNodes>
            0 -1 601 1.8653601408004761e-02</internalNodes>
          <leafValues>
            -5.1464647054672241e-02 1.0737599134445190e+00</leafValues></_>
        <_>
          <internalNodes>
            0 -1 367 -1.2094164267182350e-02</internalNodes>
          <leafValues>
            -2.9195824265480042e-01 1.2728103995323181e-01</leafValues></_>
        <_>
          <internalNodes>
            0 -1 184 1.0389851033687592e-01</internalNodes>
          <leafValues>
            -9.5102161169052124e-02 4.5709943771362305e-01</leafValues></_>
        <_>
          <internalNodes>
            0 -1 394 1.1480050161480904e-02</internalNodes>
          <leafValues>
            -3.5337980836629868e-02 1.6775791645050049e+00</leafValues></_>
        <_>
          <internalNodes>
            0 -1 471 -2.3419512435793877e-03</internalNodes>
          <leafValues>
            3.8417983055114746e-01 -1.1501849442720413e-01</leafValues></_>
        <_>
          <internalNodes>
            0 -1 594 -2.4066807236522436e-04</internalNodes>
          <leafValues>
            -3.3024954795837402e-01 1.2926909327507019e-01</leafValues></_>
        <_>
          <internalNodes>
            0 -1 502 4.1137943044304848e-03</internalNodes>
          <leafValues>
            4.9666754901409149e-02 -9.2497926950454712e-01</leafValues></_>
        <_>
          <internalNodes>
            0 -1 416 2.6719802990555763e-02</internalNodes>
          <leafValues>
            -8.8600158691406250e-02 4.4562354683876038e-01</leafValues></_>
        <_>
          <internalNodes>
            0 -1 201 1.8590949475765228e-02</internalNodes>
          <leafValues>
            -7.4783317744731903e-02 5.7359844446182251e-01</leafValues></_>
        <_>
          <internalNodes>
            0 -1 34 9.6709597855806351e-03</internalNodes>
          <leafValues>
            1.3211582601070404e-01 -2.7588117122650146e-01</leafValues></_>
        <_>
          <internalNodes>
            0 -1 316 -7.0258753839880228e-04</internalNodes>
          <leafValues>
            -1.9514529407024384e-01 1.8511824309825897e-01</leafValues></_>
        <_>
          <internalNodes>
            0 -1 352 -1.5485304594039917e-01</internalNodes>
          <leafValues>
            -1.0521711111068726e+00 4.7428935766220093e-02</leafValues></_>
        <_>
          <internalNodes>
            0 -1 221 -1.1588830966502428e-03</internalNodes>
          <leafValues>
            -2.7662906050682068e-01 1.5536548197269440e-01</leafValues></_>
        <_>
          <internalNodes>
            0 -1 198 8.7471473962068558e-03</internalNodes>
          <leafValues>
            -1.1825963854789734e-01 3.7974405288696289e-01</leafValues></_>
        <_>
          <internalNodes>
            0 -1 63 -1.1680326424539089e-02</internalNodes>
          <leafValues>
            -5.5340397357940674e-01 6.2396232038736343e-02</leafValues></_>
        <_>
          <internalNodes>
            0 -1 163 2.3429035209119320e-03</internalNodes>
          <leafValues>
            -9.5226123929023743e-02 3.9268118143081665e-01</leafValues></_>
        <_>
          <internalNodes>
            0 -1 148 2.4737166240811348e-03</internalNodes>
          <leafValues>
            1.0479614138603210e-01 -3.7933632731437683e-01</leafValues></_>
        <_>
          <internalNodes>
            0 -1 591 -1.1974951252341270e-02</internalNodes>
          <leafValues>
            5.2862155437469482e-01 -7.4221782386302948e-02</leafValues></_>
        <_>
          <internalNodes>
            0 -1 486 -5.4402697831392288e-02</internalNodes>
          <leafValues>
            1.3709596395492554e+00 -4.6802219003438950e-02</leafValues></_>
        <_>
          <internalNodes>
            0 -1 538 2.7586057782173157e-02</internalNodes>
          <leafValues>
            5.2426978945732117e-02 -7.5765675306320190e-01</leafValues></_>
        <_>
          <internalNodes>
            0 -1 61 2.5768987834453583e-03</internalNodes>
          <leafValues>
            -1.1845347285270691e-01 2.8223231434822083e-01</leafValues></_>
        <_>
          <internalNodes>
            0 -1 523 -9.4890445470809937e-03</internalNodes>
          <leafValues>
            -7.1632099151611328e-01 4.8812255263328552e-02</leafValues></_>
        <_>
          <internalNodes>
            0 -1 500 -4.2464518919587135e-03</internalNodes>
          <leafValues>
            1.7498018741607666e+00 -3.6671619862318039e-02</leafValues></_>
        <_>
          <internalNodes>
            0 -1 556 -5.7830838486552238e-03</internalNodes>
          <leafValues>
            -4.8875084519386292e-01 8.0681331455707550e-02</leafValues></_>
        <_>
          <internalNodes>
            0 -1 19 -1.6489116242155433e-03</internalNodes>
          <leafValues>
            4.0470975637435913e-01 -9.1438315808773041e-02</leafValues></_>
        <_>
          <internalNodes>
            0 -1 53 1.7960926890373230e-01</internalNodes>
          <leafValues>
            -5.9862837195396423e-02 7.0669019222259521e-01</leafValues></_>
        <_>
          <internalNodes>
            0 -1 162 -1.5075920149683952e-02</internalNodes>
          <leafValues>
            -4.1934043169021606e-01 1.0370165109634399e-01</leafValues></_>
        <_>
          <internalNodes>
            0 -1 622 -1.3110325671732426e-03</internalNodes>
          <leafValues>
            3.0949762463569641e-01 -1.2437678128480911e-01</leafValues></_>
        <_>
          <internalNodes>
            0 -1 226 -6.5437816083431244e-03</internalNodes>
          <leafValues>
            5.2591276168823242e-01 -8.7742246687412262e-02</leafValues></_>
        <_>
          <internalNodes>
            0 -1 545 -1.9028746755793691e-03</internalNodes>
          <leafValues>
            -6.6632294654846191e-01 6.2977157533168793e-02</leafValues></_>
        <_>
          <internalNodes>
            0 -1 540 1.8287041457369924e-03</internalNodes>
          <leafValues>
            6.0013566166162491e-02 -6.6331291198730469e-01</leafValues></_>
        <_>
          <internalNodes>
            0 -1 483 -3.0116508714854717e-03</internalNodes>
          <leafValues>
            3.7300613522529602e-01 -1.1251019686460495e-01</leafValues></_>
        <_>
          <internalNodes>
            0 -1 30 6.2439817935228348e-02</internalNodes>
          <leafValues>
            4.2739197611808777e-02 -8.0881708860397339e-01</leafValues></_>
        <_>
          <internalNodes>
            0 -1 339 4.4737441930919886e-04</internalNodes>
          <leafValues>
            -2.0278996229171753e-01 2.2336040437221527e-01</leafValues></_>
        <_>
          <internalNodes>
            0 -1 312 -4.6652620658278465e-03</internalNodes>
          <leafValues>
            2.5941127538681030e-01 -1.5505477786064148e-01</leafValues></_>
        <_>
          <internalNodes>
            0 -1 575 -5.2889432758092880e-02</internalNodes>
          <leafValues>
            2.5707522034645081e-01 -1.4575360715389252e-01</leafValues></_>
        <_>
          <internalNodes>
            0 -1 628 -3.8680178113281727e-03</internalNodes>
          <leafValues>
            -3.0063793063163757e-01 1.3155038654804230e-01</leafValues></_>
        <_>
          <internalNodes>
            0 -1 616 6.9040441885590553e-03</internalNodes>
          <leafValues>
            -8.3070576190948486e-02 4.7353926301002502e-01</leafValues></_>
        <_>
          <internalNodes>
            0 -1 447 -5.9083011001348495e-03</internalNodes>
          <leafValues>
            -2.7787277102470398e-01 1.3432933390140533e-01</leafValues></_>
        <_>
          <internalNodes>
            0 -1 294 -8.7435364723205566e-02</internalNodes>
          <leafValues>
            6.5892714262008667e-01 -7.4510686099529266e-02</leafValues></_>
        <_>
          <internalNodes>
            0 -1 263 -5.2303029224276543e-04</internalNodes>
          <leafValues>
            1.9010862708091736e-01 -2.0782101154327393e-01</leafValues></_>
        <_>
          <internalNodes>
            0 -1 424 -1.3355576666072011e-03</internalNodes>
          <leafValues>
            -3.3350247144699097e-01 1.0748222470283508e-01</leafValues></_>
        <_>
          <internalNodes>
            0 -1 461 -1.7961552366614342e-03</internalNodes>
          <leafValues>
            2.8126597404479980e-01 -1.2948028743267059e-01</leafValues></_>
        <_>
          <internalNodes>
            0 -1 200 5.6387140648439527e-04</internalNodes>
          <leafValues>
            -1.2946288287639618e-01 2.9370027780532837e-01</leafValues></_>
        <_>
          <internalNodes>
            0 -1 379 -7.7886036597192287e-03</internalNodes>
          <leafValues>
            -6.1956030130386353e-01 6.4030930399894714e-02</leafValues></_>
        <_>
          <internalNodes>
            0 -1 507 -6.2400713562965393e-02</internalNodes>
          <leafValues>
            7.4933004379272461e-01 -5.9946585446596146e-02</leafValues></_>
        <_>
          <internalNodes>
            0 -1 51 -1.1772259324789047e-01</internalNodes>
          <leafValues>
            -7.6358020305633545e-02 5.7488042116165161e-01</leafValues></_>
        <_>
          <internalNodes>
            0 -1 268 1.1960344389081001e-02</internalNodes>
          <leafValues>
            8.0620251595973969e-02 -4.7313785552978516e-01</leafValues></_>
        <_>
          <internalNodes>
            0 -1 419 -3.1796093098819256e-03</internalNodes>
          <leafValues>
            -2.6999703049659729e-01 1.5604124963283539e-01</leafValues></_>
        <_>
          <internalNodes>
            0 -1 36 -3.7765197455883026e-02</internalNodes>
          <leafValues>
            -5.0659573078155518e-01 8.9087583124637604e-02</leafValues></_>
        <_>
          <internalNodes>
            0 -1 563 -8.4787327796220779e-03</internalNodes>
          <leafValues>
            7.6178735494613647e-01 -6.2133952975273132e-02</leafValues></_>
        <_>
          <internalNodes>
            0 -1 176 6.1924248002469540e-03</internalNodes>
          <leafValues>
            -2.6725426316261292e-01 1.6182470321655273e-01</leafValues></_>
        <_>
          <internalNodes>
            0 -1 240 -2.7057295665144920e-03</internalNodes>
          <leafValues>
            4.5670825242996216e-01 -1.1446823924779892e-01</leafValues></_>
        <_>
          <internalNodes>
            0 -1 177 -1.3660567998886108e-01</internalNodes>
          <leafValues>
            -8.2398289442062378e-01 4.7975938767194748e-02</leafValues></_>
        <_>
          <internalNodes>
            0 -1 588 -4.8648088704794645e-04</internalNodes>
          <leafValues>
            -2.3762284219264984e-01 2.0317135751247406e-01</leafValues></_></weakClassifiers></_>
    <!-- stage 8 -->
    <_>
      <maxWeakCount>53</maxWeakCount>
      <stageThreshold>-7.1172666549682617e-01</stageThreshold>
      <weakClassifiers>
        <_>
          <internalNodes>
            0 -1 123 5.2737746387720108e-02</internalNodes>
          <leafValues>
            -1.6622029244899750e-02 -1.3219039440155029e+00</leafValues></_>
        <_>
          <internalNodes>
            0 -1 319 3.1314068473875523e-03</internalNodes>
          <leafValues>
            2.8444635868072510e-01 -5.1748174428939819e-01</leafValues></_>
        <_>
          <internalNodes>
            0 -1 269 5.1136612892150879e-02</internalNodes>
          <leafValues>
            -1.7941863834857941e-01 6.3246518373489380e-01</leafValues></_>
        <_>
          <internalNodes>
            0 -1 63 1.3126309961080551e-02</internalNodes>
          <leafValues>
            1.0968581587076187e-01 -6.4922869205474854e-01</leafValues></_>
        <_>
          <internalNodes>
            0 -1 239 2.8101340867578983e-03</internalNodes>
          <leafValues>
            -1.9186012446880341e-01 3.0867192149162292e-01</leafValues></_>
        <_>
          <internalNodes>
            0 -1 194 5.2914004772901535e-03</internalNodes>
          <leafValues>
            -5.8480780571699142e-02 6.7502641677856445e-01</leafValues></_>
        <_>
          <internalNodes>
            0 -1 304 1.1003828840330243e-03</internalNodes>
          <leafValues>
            -1.8584245443344116e-01 2.5466445088386536e-01</leafValues></_>
        <_>
          <internalNodes>
            0 -1 70 -1.7260266467928886e-02</internalNodes>
          <leafValues>
            -5.6982940435409546e-01 9.4083905220031738e-02</leafValues></_>
        <_>
          <internalNodes>
            0 -1 402 1.8444442749023438e-01</internalNodes>
          <leafValues>
            1.2353162467479706e-01 -3.9078101515769958e-01</leafValues></_>
        <_>
          <internalNodes>
            0 -1 614 -7.6881805434823036e-03</internalNodes>
          <leafValues>
            5.9334605932235718e-01 -7.0582121610641479e-02</leafValues></_>
        <_>
          <internalNodes>
            0 -1 536 1.3652830384671688e-03</internalNodes>
          <leafValues>
            -1.7045004665851593e-01 2.8316384553909302e-01</leafValues></_>
        <_>
          <internalNodes>
            0 -1 320 -1.4435848221182823e-02</internalNodes>
          <leafValues>
            -1.5337669849395752e+00 5.1218181848526001e-02</leafValues></_>
        <_>
          <internalNodes>
            0 -1 116 -3.0486676841974258e-03</internalNodes>
          <leafValues>
            -9.8450219631195068e-01 5.6311674416065216e-02</leafValues></_>
        <_>
          <internalNodes>
            0 -1 17 -1.2304127216339111e-02</internalNodes>
          <leafValues>
            5.9106743335723877e-01 -8.3634220063686371e-02</leafValues></_>
        <_>
          <internalNodes>
            0 -1 20 -2.4024233222007751e-02</internalNodes>
          <leafValues>
            -4.5752725005149841e-01 1.1759794503450394e-01</leafValues></_>
        <_>
          <internalNodes>
            0 -1 247 3.5407882183790207e-02</internalNodes>
          <leafValues>
            -8.5121430456638336e-02 6.5272539854049683e-01</leafValues></_>
        <_>
          <internalNodes>
            0 -1 533 -4.2775236070156097e-03</internalNodes>
          <leafValues>
            3.7059953808784485e-01 -1.2307871133089066e-01</leafValues></_>
        <_>
          <internalNodes>
            0 -1 492 6.5578077919781208e-04</internalNodes>
          <leafValues>
            1.5695630013942719e-01 -3.2675844430923462e-01</leafValues></_>
        <_>
          <internalNodes>
            0 -1 48 -4.2592748999595642e-02</internalNodes>
          <leafValues>
            5.8075767755508423e-01 -8.8870637118816376e-02</leafValues></_>
        <_>
          <internalNodes>
